{"learner":{"attributes":{"best_iteration":"99","best_ntree_limit":"100","scikit_learn":"{\"use_label_encoder\": true, \"n_estimators\": 100, \"objective\": \"binary:logistic\", \"max_depth\": 7, \"learning_rate\": 0.4, \"verbosity\": null, \"booster\": null, \"tree_method\": null, \"gamma\": null, \"min_child_weight\": null, \"max_delta_step\": null, \"subsample\": null, \"colsample_bytree\": null, \"colsample_bylevel\": null, \"colsample_bynode\": null, \"reg_alpha\": null, \"reg_lambda\": null, \"scale_pos_weight\": null, \"base_score\": null, \"missing\": NaN, \"num_parallel_tree\": null, \"random_state\": null, \"n_jobs\": null, \"monotone_constraints\": null, \"interaction_constraints\": null, \"importance_type\": null, \"gpu_id\": null, \"validate_parameters\": null, \"predictor\": null, \"enable_categorical\": false, \"classes_\": [0, 1], \"n_classes_\": 2, \"_le\": {\"classes_\": [0, 1]}, \"_estimator_type\": \"classifier\"}"},"feature_names":["Have_IP","Have_At","URL_Length","URL_Depth","Redirection","https_Domain","TinyURL","Prefix/Suffix","DNS_Record","Web_Traffic","Domain_Age","Domain_End","iFrame","Mouse_Over","Right_Click","Web_Forwards"],"feature_types":["int","int","int","int","int","int","int","int","int","int","int","int","int","int","int","int"],"gradient_booster":{"model":{"gbtree_model_param":{"num_trees":"100","size_leaf_vector":"0"},"tree_info":[0,0,0,0,0,0,0,0,0,0,0,0,0,0,0,0,0,0,0,0,0,0,0,0,0,0,0,0,0,0,0,0,0,0,0,0,0,0,0,0,0,0,0,0,0,0,0,0,0,0,0,0,0,0,0,0,0,0,0,0,0,0,0,0,0,0,0,0,0,0,0,0,0,0,0,0,0,0,0,0,0,0,0,0,0,0,0,0,0,0,0,0,0,0,0,0,0,0,0,0],"trees":[{"base_weights":[1.0994502E-2,1.9955752E0,-5.6774193E-1,-7.512161E-1,1.7946428E0,-1.0427593E0,5.8939096E-2,-1.1045356E0,1.2280701E0,1.6433121E0,-1.2227074E-1,-1.1282814E0,2.247191E-2,5.5737704E-1,1.8596492E0,-2.8022417E-1,1.4108527E0,-1.1376055E0,1.5E0,-6.440678E-1,1.1764706E0,1.2765957E-1,1.5555556E0,-3.640898E-1,1.76E0,1.6581197E0,-7.5E-1,-1.0060606E0,-1.2848806E0,-8.363636E-1,1E0,1.4285715E0,-3.783784E-1,-2.4567789E-1,-1.5555556E0,1.919192E0,1.8181819E-1],"categories":[],"categories_nodes":[],"categories_segments":[],"categories_sizes":[],"default_left":[true,false,true,true,false,true,true,true,true,false,true,true,true,true,false,true,true,true,false,true,false,true,false,true,false,true,false,false,false,false,false,false,false,false,false,false,false],"id":0,"left_children":[1,-1,3,5,-1,7,9,11,13,-1,15,17,19,21,-1,23,25,27,-1,29,-1,31,-1,33,-1,35,-1,-1,-1,-1,-1,-1,-1,-1,-1,-1,-1],"loss_changes":[2.2993796E3,0E0,6.731749E2,3.3994635E2,0E0,1.4981128E2,1.0980287E2,2.7609985E1,1.103595E1,0E0,8.357805E1,2.6445923E1,1.7872114E1,6.342674E0,0E0,5.4068214E1,1.8474998E1,1.8206543E1,0E0,5.499538E0,0E0,8.275692E0,0E0,4.2048763E1,0E0,1.0924629E1,0E0,0E0,0E0,0E0,0E0,0E0,0E0,0E0,0E0,0E0,0E0],"parents":[2147483647,0,0,2,2,3,3,5,5,6,6,7,7,8,8,10,10,11,11,12,12,13,13,15,15,16,16,17,17,19,19,21,21,23,23,25,25],"right_children":[2,-1,4,6,-1,8,10,12,14,-1,16,18,20,22,-1,24,26,28,-1,30,-1,32,-1,34,-1,36,-1,-1,-1,-1,-1,-1,-1,-1,-1,-1,-1],"split_conditions":[5E-1,7.982301E-1,5E-1,4.5E0,7.178571E-1,5E-1,5E-1,5E-1,2.5E0,6.5732485E-1,5E-1,5E-1,1.5E0,5E-1,7.438597E-1,5E-1,5E-1,5E-1,6E-1,5E-1,4.7058827E-1,5E-1,6.2222224E-1,5E-1,7.04E-1,5E-1,-3E-1,-4.0242425E-1,-5.1395226E-1,-3.3454546E-1,4E-1,5.714286E-1,-1.5135136E-1,-9.8271154E-2,-6.2222224E-1,7.676768E-1,7.272728E-2],"split_indices":[2,0,7,3,0,1,9,4,3,0,12,0,3,10,0,1,6,10,0,8,0,9,0,15,0,8,0,0,0,0,0,0,0,0,0,0,0],"split_type":[0,0,0,0,0,0,0,0,0,0,0,0,0,0,0,0,0,0,0,0,0,0,0,0,0,0,0,0,0,0,0,0,0,0,0,0,0],"sum_hessian":[2E3,4.51E2,1.549E3,1.438E3,1.11E2,1.05725E3,3.8075E2,1.02975E3,2.75E1,3.825E1,3.425E2,1.0085E3,2.125E1,1.425E1,1.325E1,3.1125E2,3.125E1,1.0055E3,3E0,1.375E1,7.5E0,1.075E1,3.5E0,2.9975E2,1.15E1,2.825E1,3E0,5.3525E2,4.7025E2,1.275E1,1E0,2.5E0,8.25E0,2.7375E2,2.6E1,2.375E1,4.5E0],"tree_param":{"num_deleted":"0","num_feature":"16","num_nodes":"37","size_leaf_vector":"0"}},{"base_weights":[1.787481E-2,1.4463793E0,-3.58032E-1,-4.7423875E-1,1.2602886E0,-6.6477275E-1,4.3700524E-2,1.134131E0,1.446764E0,-7.05754E-1,8.878566E-1,1.6156335E-1,-1.0509511E0,1.3442962E0,7.8597236E-1,6.886736E-1,-7.170802E-1,4.2509243E-1,1.3579464E0,1.12122E0,5.2875973E-2,1.0822076E0,-1.3001196E0,4.8352662E-1,1.3212514E0,1.1882194E0,-5.1290226E-1,-7.235018E-1,1.1352892E0,1.3536828E0,1.5477227E-1,-4.396103E-2,9.819005E-1,-1.5109146E0,7.399823E-1,1.1590679E0,2.4561085E-1,-3.0030012E-1,1.8039457E0,-4.514488E-1,-7.7064127E-1,-3.1674376E-1,1.1692784E0,5.3925708E-2,-1.059686E0,1.4236535E0,1.0027377E-1,9.026457E-1,1.01976715E-1],"categories":[],"categories_nodes":[],"categories_segments":[],"categories_sizes":[],"default_left":[true,false,true,true,true,true,true,true,false,true,true,true,true,false,true,true,true,true,false,false,true,false,true,true,false,true,false,true,false,false,true,true,true,false,false,false,true,false,false,false,false,false,false,false,false,false,false,false,false],"id":1,"left_children":[1,-1,3,5,7,9,11,13,-1,15,17,19,21,-1,23,25,27,29,-1,-1,31,-1,33,35,-1,37,-1,39,-1,-1,41,43,45,-1,-1,-1,47,-1,-1,-1,-1,-1,-1,-1,-1,-1,-1,-1,-1],"loss_changes":[9.9793427E2,0E0,2.7728763E2,1.3556729E2,6.845093E-1,6.451846E1,4.7946285E1,3.595993E0,0E0,1.5953705E1,5.1364975E0,3.4900597E1,2.0610153E1,0E0,3.625803E0,5.6496134E0,1.2377258E1,3.4782784E0,0E0,0E0,2.7223793E1,0E0,1.522541E1,2.6740818E0,0E0,6.254031E0,0E0,1.20755005E1,0E0,0E0,6.353645E0,2.7356096E1,1.0981215E1,0E0,0E0,0E0,1.3125253E0,0E0,0E0,0E0,0E0,0E0,0E0,0E0,0E0,0E0,0E0,0E0,0E0],"parents":[2147483647,0,0,2,2,3,3,4,4,5,5,6,6,7,7,9,9,10,10,11,11,12,12,14,14,15,15,16,16,17,17,20,20,22,22,23,23,25,25,27,27,30,30,31,31,32,32,36,36],"right_children":[2,-1,4,6,8,10,12,14,-1,16,18,20,22,-1,24,26,28,30,-1,-1,32,-1,34,36,-1,38,-1,40,-1,-1,42,44,46,-1,-1,-1,48,-1,-1,-1,-1,-1,-1,-1,-1,-1,-1,-1,-1],"split_conditions":[5E-1,5.785517E-1,5E-1,4.5E0,4.5E0,5E-1,9.5E0,2.5E0,5.787056E-1,5E-1,2.5E0,5E-1,5E-1,5.377185E-1,5E-1,5E-1,5E-1,5E-1,5.4317856E-1,4.48488E-1,5E-1,4.3288302E-1,5E-1,5E-1,5.2850056E-1,5E-1,-2.051609E-1,5E-1,4.541157E-1,5.414731E-1,5E-1,5E-1,5E-1,-6.043658E-1,2.9599294E-1,4.6362716E-1,5E-1,-1.2012005E-1,7.215783E-1,-1.8057953E-1,-3.082565E-1,-1.2669751E-1,4.6771136E-1,2.1570284E-2,-4.2387438E-1,5.694614E-1,4.010951E-2,3.610583E-1,4.079069E-2],"split_indices":[2,0,7,3,3,1,3,3,0,3,3,9,11,0,10,12,0,11,0,0,12,0,10,11,0,11,0,11,0,0,10,15,13,0,0,0,9,0,0,0,0,0,0,0,0,0,0,0,0],"split_type":[0,0,0,0,0,0,0,0,0,0,0,0,0,0,0,0,0,0,0,0,0,0,0,0,0,0,0,0,0,0,0,0,0,0,0,0,0,0,0,0,0,0,0,0,0,0,0,0,0],"sum_hessian":[1.8564396E3,3.8615244E2,1.4702871E3,1.372443E3,9.784408E1,1.0031364E3,3.693066E2,6.2584953E1,3.525913E1,9.778712E2,2.5265198E1,3.3417758E2,3.512901E1,3.7242455E1,2.5342499E1,7.3968983E0,9.7047437E2,1.3691419E1,1.1573779E1,3.304961E1,3.01128E2,3.324483E0,3.1804527E1,1.7409195E1,7.933304E0,5.232601E0,2.164297E0,9.6772894E2,2.745411E0,2.183402E0,1.1508017E1,2.7356552E2,2.756246E1,2.9061155E1,2.7433715E0,3.5259128E0,1.3883282E1,1.6810184E0,3.5515828E0,1.4447969E2,8.2324927E2,8.326064E0,3.1819527E0,2.5038272E2,2.3182798E1,1.7952349E1,9.61011E0,1.5425868E0,1.2340694E1],"tree_param":{"num_deleted":"0","num_feature":"16","num_nodes":"49","size_leaf_vector":"0"}},{"base_weights":[2.952559E-2,1.2480899E0,-2.3248021E-1,-3.112932E-1,1.0315002E0,-4.426853E-1,3.2275464E-2,9.0779024E-1,1.2279577E0,-4.7148234E-1,7.0934397E-1,8.8676614E-1,-4.5719758E-2,1.1097071E0,6.113522E-1,-4.8966762E-1,3.1424552E-1,3.4366372E-1,1.1482984E0,6.5985787E-1,1.1540835E0,-1.1582875E-1,9.115268E-1,3.6818305E-1,1.1098188E0,-3.9519605E-1,-6.009345E-1,6.1147976E-1,-9.501749E-1,1.2186806E0,7.496899E-2,4.5808733E-1,8.891051E-1,-1.9322743E-1,9.58779E-1,1.206221E0,-5.2772427E-1,9.695418E-1,1.8196653E-1,1.396207E-1,-4.872353E-1,-6.369054E-1,7.444409E-3,1.2231301E0,1.0848323E-1,1.0135052E0,-1.9755161E-1,6.8758607E-1,-6.0577143E-2,-1.0646686E-1,-9.1967046E-1,1.2452064E0,-5.6322515E-1,8.517044E-1,1.6117955E0,7.637328E-1,6.537716E-2],"categories":[],"categories_nodes":[],"categories_segments":[],"categories_sizes":[],"default_left":[true,false,true,true,true,true,true,true,false,true,true,true,true,false,true,true,true,true,false,true,false,true,true,true,false,true,true,true,false,false,true,true,false,true,true,true,false,false,true,false,false,false,false,false,false,false,false,false,false,false,false,false,false,false,false,false,false],"id":2,"left_children":[1,-1,3,5,7,9,11,13,-1,15,17,19,21,-1,23,25,27,29,-1,31,-1,33,35,37,-1,39,41,43,-1,-1,45,47,-1,49,51,53,-1,-1,55,-1,-1,-1,-1,-1,-1,-1,-1,-1,-1,-1,-1,-1,-1,-1,-1,-1,-1],"loss_changes":[5.255398E2,0E0,1.3529022E2,5.762079E1,8.2357025E-1,3.0960281E1,2.3630146E1,2.4803352E0,0E0,1.3031525E1,3.2832222E0,1.0372028E0,2.1936872E1,0E0,2.4530096E0,9.025833E0,8.471992E0,3.182963E0,0E0,4.426384E-1,0E0,2.5468796E1,1.0099865E1,1.7680633E0,0E0,2.3671799E1,8.818146E0,5.2846665E0,0E0,0E0,3.1979446E0,1.4505024E0,0E0,1.782655E1,9.678007E0,1.3338165E0,0E0,0E0,9.328637E-1,0E0,0E0,0E0,0E0,0E0,0E0,0E0,0E0,0E0,0E0,0E0,0E0,0E0,0E0,0E0,0E0,0E0,0E0],"parents":[2147483647,0,0,2,2,3,3,4,4,5,5,6,6,7,7,9,9,10,10,11,11,12,12,14,14,15,15,16,16,17,17,19,19,21,21,22,22,23,23,25,25,26,26,27,27,30,30,31,31,33,33,34,34,35,35,38,38],"right_children":[2,-1,4,6,8,10,12,14,-1,16,18,20,22,-1,24,26,28,30,-1,32,-1,34,36,38,-1,40,42,44,-1,-1,46,48,-1,50,52,54,-1,-1,56,-1,-1,-1,-1,-1,-1,-1,-1,-1,-1,-1,-1,-1,-1,-1,-1,-1,-1],"split_conditions":[5E-1,4.9923596E-1,5E-1,4.5E0,4.5E0,5E-1,5E-1,2.5E0,4.911831E-1,5E-1,2.5E0,6.5E0,5E-1,4.4388285E-1,5E-1,5E-1,5E-1,1.5E0,4.5931935E-1,5E-1,4.616334E-1,5E-1,5E-1,5E-1,4.4392753E-1,5E-1,5E-1,5E-1,-3.8006997E-1,4.8747227E-1,5E-1,5.5E0,3.5564205E-1,9.5E0,5E-1,5E-1,-2.1108972E-1,3.8781673E-1,5E-1,5.584828E-2,-1.9489412E-1,-2.5476214E-1,2.9777638E-3,4.8925206E-1,4.3393295E-2,4.054021E-1,-7.902064E-2,2.7503443E-1,-2.4230858E-2,-4.2586744E-2,-3.6786819E-1,4.9808255E-1,-2.2529006E-1,3.4068176E-1,6.447182E-1,3.0549312E-1,2.6150865E-2],"split_indices":[2,0,7,3,3,1,9,3,0,4,3,3,8,0,10,10,6,3,0,10,0,12,13,11,0,9,12,10,0,0,9,3,0,3,6,6,0,0,9,0,0,0,0,0,0,0,0,0,0,0,0,0,0,0,0,0,0],"split_type":[0,0,0,0,0,0,0,0,0,0,0,0,0,0,0,0,0,0,0,0,0,0,0,0,0,0,0,0,0,0,0,0,0,0,0,0,0,0,0,0,0,0,0,0,0,0,0,0,0,0,0,0,0,0,0,0,0],"sum_hessian":[1.6441533E3,2.9028793E2,1.3538654E3,1.275112E3,7.875337E1,9.2215924E2,3.529528E2,5.1772724E1,2.698065E1,9.002467E2,2.1912539E1,2.865444E1,3.2429834E2,2.9164225E1,2.2608498E1,8.802505E2,1.9996193E1,1.29266405E1,8.985899E0,1.7374664E1,1.1279775E1,3.0298654E2,2.1311817E1,1.636414E1,6.244359E0,4.7851617E2,4.0173434E2,1.6608368E1,3.387825E0,2.206268E0,1.0720372E1,1.0835813E1,6.538852E0,2.8339517E2,1.9591362E1,1.7824142E1,3.4876764E0,2.8745797E0,1.3489559E1,7.01831E1,4.0833307E2,3.792632E2,2.2471125E1,6.848642E0,9.759726E0,1.8005247E0,8.9198475E0,7.2861495E0,3.5496626E0,2.5418402E2,2.9211151E1,1.6641453E1,2.9499073E0,1.1164842E1,6.6593003E0,1.3253931E0,1.2164166E1],"tree_param":{"num_deleted":"0","num_feature":"16","num_nodes":"57","size_leaf_vector":"0"}},{"base_weights":[3.7030384E-2,1.1476765E0,-1.4806485E-1,-2.0223293E-1,8.799804E-1,-2.2942731E-1,8.4543395E-1,7.494825E-1,1.1108019E0,-3.1516257E-1,-1.1393883E-2,2.829413E-1,1.2191598E0,9.582312E-1,4.8666954E-1,-2.7404326E-1,-6.5622777E-1,-7.07955E-2,7.4009943E-1,3.2139856E-2,9.63913E-1,2.8589314E-1,9.7787684E-1,5.936188E-2,-3.3255616E-1,-1.1253363E0,-3.4338212E-1,-1.4629509E-2,-8.3435684E-1,1.1674477E0,1.32671E-1,9.9309164E-1,-2.7259234E-1,8.400612E-1,1.373536E-1,-4.762911E-1,1.0170081E0,1.3406568E0,-3.4457892E-1,-1.2037856E-1,-1.1965708E0,-1.1361942E0,5.7308595E-3,-8.4786676E-2,1.5018396E0,-1.1498303E0,-5.3826696E-1,-5.232203E-1,1.1536746E0,8.446538E-1,-6.005039E-1,2.9001858E-2,7.546563E-1],"categories":[],"categories_nodes":[],"categories_segments":[],"categories_sizes":[],"default_left":[true,false,true,true,true,true,true,true,false,true,true,true,false,false,true,true,true,true,true,true,false,true,false,true,true,true,true,true,true,false,true,false,true,false,true,false,false,false,false,false,false,false,false,false,false,false,false,false,false,false,false,false,false],"id":3,"left_children":[1,-1,3,5,7,9,11,13,-1,15,17,19,-1,-1,21,23,25,27,29,31,-1,33,-1,35,37,39,41,43,45,-1,47,-1,49,-1,51,-1,-1,-1,-1,-1,-1,-1,-1,-1,-1,-1,-1,-1,-1,-1,-1,-1,-1],"loss_changes":[3.0051804E2,0E0,6.996489E1,3.4134335E1,1.0625229E0,2.1716507E1,6.035858E0,1.907259E0,0E0,1.1515785E1,1.4737969E1,2.260807E0,0E0,0E0,1.8096967E0,1.4571941E1,1.2676228E1,1.3102049E1,6.1235104E0,3.4454408E0,0E0,1.2387908E0,0E0,5.804777E1,1.3230499E1,2.373787E0,1.5184214E1,3.0540073E1,1.3365335E0,0E0,8.048229E0,0E0,3.8102398E0,0E0,9.2581904E-1,0E0,0E0,0E0,0E0,0E0,0E0,0E0,0E0,0E0,0E0,0E0,0E0,0E0,0E0,0E0,0E0,0E0,0E0],"parents":[2147483647,0,0,2,2,3,3,4,4,5,5,6,6,7,7,9,9,10,10,11,11,14,14,15,15,16,16,17,17,18,18,19,19,21,21,23,23,24,24,25,25,26,26,27,27,28,28,30,30,32,32,34,34],"right_children":[2,-1,4,6,8,10,12,14,-1,16,18,20,-1,-1,22,24,26,28,30,32,-1,34,-1,36,38,40,42,44,46,-1,48,-1,50,-1,52,-1,-1,-1,-1,-1,-1,-1,-1,-1,-1,-1,-1,-1,-1,-1,-1,-1,-1],"split_conditions":[5E-1,4.590706E-1,5E-1,5E-1,4.5E0,4.5E0,2.5E0,2.5E0,4.4432077E-1,5E-1,5E-1,5E-1,4.8766395E-1,3.832925E-1,5E-1,5E-1,5E-1,5E-1,5E-1,5E-1,3.8556522E-1,5E-1,3.9115074E-1,2.5E0,5E-1,1.5E0,5E-1,5E-1,5.5E0,4.669791E-1,5.5E0,3.9723668E-1,5E-1,3.360245E-1,5E-1,-1.9051644E-1,4.0680322E-1,5.362627E-1,-1.3783157E-1,-4.8151426E-2,-4.786283E-1,-4.544777E-1,2.2923439E-3,-3.391467E-2,6.0073584E-1,-4.5993215E-1,-2.1530679E-1,-2.0928812E-1,4.6146986E-1,3.378615E-1,-2.4020158E-1,1.1600743E-2,3.0186254E-1],"split_indices":[2,0,7,1,3,3,3,3,0,15,12,10,0,0,10,11,12,15,10,11,0,11,0,3,3,3,11,6,3,0,3,0,9,0,12,0,0,0,0,0,0,0,0,0,0,0,0,0,0,0,0,0,0],"split_type":[0,0,0,0,0,0,0,0,0,0,0,0,0,0,0,0,0,0,0,0,0,0,0,0,0,0,0,0,0,0,0,0,0,0,0,0,0,0,0,0,0,0,0,0,0,0,0,0,0,0,0,0,0],"sum_hessian":[1.4600127E3,2.0781834E2,1.2521943E3,1.1902812E3,6.1913063E1,1.160928E3,2.935329E1,4.226502E1,1.9648043E1,8.3294946E2,3.2797852E2,1.2418844E1,1.6934446E1,2.2080626E1,2.0184393E1,7.449417E2,8.8007744E1,3.0479208E2,2.3186428E1,9.841444E0,2.5774007E0,1.54509735E1,4.73342E0,1.11216736E2,6.33725E2,3.4171246E1,5.38365E1,2.848577E2,1.9934383E1,1.306956E1,1.0116867E1,1.82561E0,8.015834E0,2.281972E0,1.3169002E1,7.164515E1,3.957159E1,3.7327073E0,6.2999225E2,2.4398835E0,3.1731361E1,1.5769808E1,3.8066692E1,2.7316425E2,1.1693444E1,8.255284E0,1.1679099E1,6.4566607E0,3.6602068E0,1.4612539E0,6.5545797E0,1.2093311E1,1.0756905E0],"tree_param":{"num_deleted":"0","num_feature":"16","num_nodes":"53","size_leaf_vector":"0"}},{"base_weights":[3.7728097E-2,1.089298E0,-9.31119E-2,-1.3072583E-1,7.5609267E-1,-1.4983568E-1,7.2113997E-1,6.194195E-1,1.0334991E0,-1.1631958E-1,-4.6804258E-1,2.7307868E-1,1.0633377E0,8.342165E-1,3.913189E-1,-1.3223135E-1,5.992147E-1,-8.3877015E-1,-1.8655817E-1,9.9127525E-1,6.1493788E-2,1.113155E0,2.4494003E-1,2.2636624E-1,8.775553E-1,-1.560911E-1,1.9282584E-1,-3.5474223E-1,1.2484803E0,-8.957151E-1,7.943662E-1,-8.548073E-1,1.606915E-2,-1.775788E-1,7.9371876E-1,7.6076686E-1,1.0890823E-1,-2.4316196E-1,-5.3557772E-2,-1.913843E-2,1.9859687E0,-8.411194E-1,8.2629985E-1,4.0152618E-1,1.3753695E0,-8.7887295E-2,-9.4013125E-1,-9.2357343E-1,3.3376843E-1,7.216792E-1,-4.3354693E-1,-1.1230867E-1,3.4682018E-1],"categories":[],"categories_nodes":[],"categories_segments":[],"categories_sizes":[],"default_left":[true,false,true,true,true,true,true,true,false,true,true,true,true,false,true,true,true,true,true,false,true,false,false,true,false,true,true,true,true,true,false,false,true,true,false,false,true,false,false,false,false,false,false,false,false,false,false,false,false,false,false,false,false],"id":4,"left_children":[1,-1,3,5,7,9,11,13,-1,15,17,19,21,-1,23,25,27,29,31,-1,33,-1,-1,35,-1,37,39,41,43,45,-1,-1,47,49,-1,-1,51,-1,-1,-1,-1,-1,-1,-1,-1,-1,-1,-1,-1,-1,-1,-1,-1],"loss_changes":[1.8174402E2,0E0,3.763162E1,1.8438992E1,1.2549896E0,1.1700241E1,3.524107E0,1.4365587E0,0E0,1.1447252E1,1.076899E1,1.7805427E0,2.8834343E-1,0E0,1.352107E0,7.6119194E0,1.4007986E1,4.8870983E0,8.245984E0,0E0,1.9662089E0,0E0,0E0,9.079413E-1,0E0,8.122532E0,2.5615973E1,6.237283E0,8.7205696E-1,1.4909668E0,0E0,0E0,1.4527802E1,2.3102906E0,0E0,0E0,7.814294E-1,0E0,0E0,0E0,0E0,0E0,0E0,0E0,0E0,0E0,0E0,0E0,0E0,0E0,0E0,0E0,0E0],"parents":[2147483647,0,0,2,2,3,3,4,4,5,5,6,6,7,7,9,9,10,10,11,11,12,12,14,14,15,15,16,16,17,17,18,18,20,20,23,23,25,25,26,26,27,27,28,28,29,29,32,32,33,33,36,36],"right_children":[2,-1,4,6,8,10,12,14,-1,16,18,20,22,-1,24,26,28,30,32,-1,34,-1,-1,36,-1,38,40,42,44,46,-1,-1,48,50,-1,-1,52,-1,-1,-1,-1,-1,-1,-1,-1,-1,-1,-1,-1,-1,-1,-1,-1],"split_conditions":[5E-1,4.3571922E-1,5E-1,5E-1,4.5E0,5E-1,2.5E0,2.5E0,4.1339967E-1,5E-1,5E-1,1.5E0,7.5E0,3.336866E-1,5E-1,5E-1,5E-1,5E-1,5E-1,3.965101E-1,5E-1,4.45262E-1,9.7976014E-2,5E-1,3.5102212E-1,3.5E0,5E-1,4.5E0,2.5E0,1.5E0,3.177465E-1,-3.4192294E-1,1.5E0,5E-1,3.174875E-1,3.0430675E-1,3.5E0,-9.726479E-2,-2.1423109E-2,-7.655372E-3,7.943875E-1,-3.3644778E-1,3.3051994E-1,1.6061048E-1,5.5014783E-1,-3.515492E-2,-3.760525E-1,-3.6942938E-1,1.3350737E-1,2.886717E-1,-1.7341878E-1,-4.492347E-2,1.3872807E-1],"split_indices":[2,0,7,1,3,15,3,3,0,12,12,3,3,0,10,6,9,8,11,0,10,0,0,9,0,3,8,3,3,3,0,0,3,9,0,0,3,0,0,0,0,0,0,0,0,0,0,0,0,0,0,0,0],"split_type":[0,0,0,0,0,0,0,0,0,0,0,0,0,0,0,0,0,0,0,0,0,0,0,0,0,0,0,0,0,0,0,0,0,0,0,0,0,0,0,0,0,0,0,0,0,0,0,0,0,0,0,0,0],"sum_hessian":[1.3191978E3,1.4516571E2,1.1740321E3,1.1250463E3,4.8985756E1,1.101168E3,2.387832E1,3.4983105E1,1.4002652E1,9.974718E2,1.0369617E2,1.1118358E1,1.2759963E1,1.6648436E1,1.8334667E1,9.7657043E2,2.090139E1,4.3899174E1,5.979699E1,1.6915654E0,9.426792E0,1.1688311E1,1.0716523E0,1.4784624E1,3.550043E0,9.1027454E2,6.629587E1,8.648255E0,1.2253134E1,4.2856377E1,1.0427985E0,1.3164122E1,4.663287E1,7.677543E0,1.7492495E0,1.6771483E0,1.3107475E1,4.9151257E2,4.1876196E2,6.0172333E1,6.123539E0,6.329468E0,2.318788E0,2.1391585E0,1.0113976E1,2.3887734E0,4.04676E1,1.1301106E1,3.5331764E1,1.2980101E0,6.379533E0,7.065616E0,6.0418596E0],"tree_param":{"num_deleted":"0","num_feature":"16","num_nodes":"53","size_leaf_vector":"0"}},{"base_weights":[3.604695E-2,1.0520939E0,-5.554462E-2,-8.158677E-2,6.4138114E-1,-9.5315516E-2,6.306575E-1,5.02383E-1,9.7272134E-1,-1.0060094E-1,1.2269815E0,2.6427147E-1,9.564102E-1,7.180718E-1,3.0895734E-1,1.0615838E-1,-1.3154754E-1,8.4618145E-1,8.831869E-2,1.016885E0,2.0004836E-1,1.7219467E-1,7.915477E-1,-6.579389E-1,2.8111827E-1,-1.00202076E-1,-4.2234486E-1,-1.3681556E-1,7.2876555E-1,7.0004046E-1,5.770102E-2,-1.0306873E0,-3.7098333E-1,6.4768386E-1,-2.3356798E-1,-1.1515621E-1,1.0300072E0,-8.967931E-1,-2.7543905E-1,6.241884E-1,-3.4170842E-1,-8.141502E-2,2.2320081E-1],"categories":[],"categories_nodes":[],"categories_segments":[],"categories_sizes":[],"default_left":[true,false,true,true,true,true,true,true,false,true,false,true,true,false,true,true,true,false,true,false,false,true,false,true,true,true,true,true,false,false,true,false,false,false,false,false,false,false,false,false,false,false,false],"id":5,"left_children":[1,-1,3,5,7,9,11,13,-1,15,-1,17,19,-1,21,23,25,-1,27,-1,-1,29,-1,31,33,35,37,39,-1,-1,41,-1,-1,-1,-1,-1,-1,-1,-1,-1,-1,-1,-1],"loss_changes":[1.137053E2,0E0,2.0400967E1,1.0636948E1,1.3765182E0,7.5462523E0,2.2042866E0,1.0547023E0,0E0,6.788576E0,0E0,1.0587949E0,2.775755E-1,0E0,1.0442427E0,1.8686441E1,8.356286E0,0E0,1.4863572E0,0E0,0E0,8.7913966E-1,0E0,2.4076653E0,2.1529125E1,1.4198147E1,5.9801016E0,1.4540797E0,0E0,0E0,3.3113343E-1,0E0,0E0,0E0,0E0,0E0,0E0,0E0,0E0,0E0,0E0,0E0,0E0],"parents":[2147483647,0,0,2,2,3,3,4,4,5,5,6,6,7,7,9,9,11,11,12,12,14,14,15,15,16,16,18,18,21,21,23,23,24,24,25,25,26,26,27,27,30,30],"right_children":[2,-1,4,6,8,10,12,14,-1,16,-1,18,20,-1,22,24,26,-1,28,-1,-1,30,-1,32,34,36,38,40,-1,-1,42,-1,-1,-1,-1,-1,-1,-1,-1,-1,-1,-1,-1],"split_conditions":[5E-1,4.2083755E-1,5E-1,5E-1,4.5E0,5E-1,2.5E0,2.5E0,3.8908854E-1,5E-1,4.907926E-1,5E-1,7.5E0,2.8722873E-1,5E-1,1.5E0,5E-1,3.3847257E-1,5E-1,4.0675402E-1,8.001935E-2,5E-1,3.166191E-1,5E-1,5E-1,5E-1,5E-1,5E-1,2.9150623E-1,2.8001618E-1,3.5E0,-4.1227493E-1,-1.4839333E-1,2.5907356E-1,-9.3427196E-2,-4.6062484E-2,4.120029E-1,-3.5871726E-1,-1.10175624E-1,2.4967538E-1,-1.3668337E-1,-3.2566007E-2,8.928033E-2],"split_indices":[2,0,7,1,3,0,3,3,0,9,0,11,3,0,10,3,15,0,10,0,0,11,0,11,10,12,11,9,0,0,3,0,0,0,0,0,0,0,0,0,0,0,0],"split_type":[0,0,0,0,0,0,0,0,0,0,0,0,0,0,0,0,0,0,0,0,0,0,0,0,0,0,0,0,0,0,0,0,0,0,0,0,0,0,0,0,0,0,0],"sum_hessian":[1.2202039E3,1.00032524E2,1.1201714E3,1.0806726E3,3.9498753E1,1.0610859E3,1.9586618E1,2.959837E1,9.900385E0,1.0577817E3,3.3041983E0,1.0070838E1,9.5157795E0,1.2711448E1,1.688692E1,1.3739467E2,9.203871E2,1.4537766E0,8.617062E0,8.492333E0,1.0234461E0,1.4215238E1,2.6716838E0,2.5084284E1,1.1231038E2,8.3204443E2,8.834269E1,6.9576397E0,1.6594222E0,1.6222072E0,1.259303E1,9.783695E0,1.5300589E1,6.5442825E1,4.6867558E1,8.2206555E2,9.978883E0,1.9679867E1,6.866282E1,1.041804E0,5.915836E0,7.117912E0,5.475118E0],"tree_param":{"num_deleted":"0","num_feature":"16","num_nodes":"43","size_leaf_vector":"0"}},{"base_weights":[3.1689472E-2,1.0261054E0,-3.1992935E-2,-5.0180577E-2,5.3612036E-1,-6.0246695E-2,5.580115E-1,4.018886E-1,9.171708E-1,-4.822368E-2,-5.110271E-1,2.5599352E-1,8.653389E-1,3.0316818E-1,8.587089E-1,-6.9626026E-2,7.541184E-1,9.9179316E-1,-7.0285755E-1,8.4794027E-1,7.2069325E-2,7.8612137E-1,2.0418435E-1,-1.151181E-2,-1.4835295E-1,8.931744E-1,-7.751782E-1,-8.7887555E-1,5.856511E-1,-8.7623455E-2,6.0690755E-1,5.588307E-1,1.1640284E-1,1.7818977E-1,-4.2629194E-2,-6.4935005E-1,-1.2467454E-1,7.5973123E-1,9.4610855E-2,-5.116562E-2,6.161874E-1],"categories":[],"categories_nodes":[],"categories_segments":[],"categories_sizes":[],"default_left":[true,false,true,true,true,true,true,true,false,true,true,true,false,true,false,true,true,false,true,false,true,false,true,true,true,false,false,false,true,false,false,false,true,false,false,false,false,false,false,false,false],"id":6,"left_children":[1,-1,3,5,7,9,11,13,-1,15,17,19,-1,21,-1,23,25,-1,27,-1,29,-1,31,33,35,-1,-1,-1,37,-1,-1,-1,39,-1,-1,-1,-1,-1,-1,-1,-1],"loss_changes":[7.3035934E1,0E0,1.1231488E1,6.4720373E0,1.35637E0,5.5871863E0,1.376812E0,9.4462967E-1,0E0,1.7390177E1,8.421797E0,1.0390693E0,0E0,9.636946E-1,0E0,4.5017557E0,6.2888823E0,0E0,6.036702E0,0E0,8.0500346E-1,0E0,5.845873E-1,3.3568823E0,4.8770504E0,0E0,0E0,0E0,2.2955513E-1,0E0,0E0,0E0,1.5381879E0,0E0,0E0,0E0,0E0,0E0,0E0,0E0,0E0],"parents":[2147483647,0,0,2,2,3,3,4,4,5,5,6,6,7,7,9,9,10,10,11,11,13,13,15,15,16,16,18,18,20,20,22,22,23,23,24,24,28,28,32,32],"right_children":[2,-1,4,6,8,10,12,14,-1,16,18,20,-1,22,-1,24,26,-1,28,-1,30,-1,32,34,36,-1,-1,-1,38,-1,-1,-1,40,-1,-1,-1,-1,-1,-1,-1,-1],"split_conditions":[5E-1,4.1044217E-1,5E-1,5E-1,4.5E0,9.5E0,2.5E0,5E-1,3.6686835E-1,7.5E0,5E-1,1.5E0,3.461356E-1,5E-1,3.4348357E-1,5E-1,5E-1,3.9671728E-1,5E-1,3.3917612E-1,5E-1,3.1444857E-1,5E-1,5E-1,5E-1,3.5726976E-1,-3.100713E-1,-3.5155022E-1,1.05E1,-3.5049383E-2,2.4276303E-1,2.2353227E-1,5E-1,7.127591E-2,-1.7051678E-2,-2.5974002E-1,-4.9869817E-2,3.038925E-1,3.784434E-2,-2.046625E-2,2.4647497E-1],"split_indices":[2,0,7,1,3,3,3,12,0,3,11,3,0,11,0,10,4,0,10,0,10,0,9,9,11,0,0,0,3,0,0,0,10,0,0,0,0,0,0,0,0],"split_type":[0,0,0,0,0,0,0,0,0,0,0,0,0,0,0,0,0,0,0,0,0,0,0,0,0,0,0,0,0,0,0,0,0,0,0,0,0,0,0,0,0],"sum_hessian":[1.1517996E3,6.841231E1,1.0833873E3,1.0506628E3,3.2724373E1,1.0344429E3,1.6220001E1,2.5719067E1,7.0053062E0,1.00864764E3,2.5795221E1,9.105136E0,7.114866E0,2.2516766E1,3.2023013E0,9.833307E2,2.5316965E1,2.447907E0,2.3347315E1,1.3025861E0,7.8025503E0,2.649183E0,1.9867582E1,5.6638556E2,4.1694516E2,2.35881E1,1.7288642E0,2.082096E1,2.5263548E0,6.652427E0,1.1501231E0,2.8772092E0,1.6990374E1,7.9147934E1,4.8723764E2,1.7624092E1,3.9932104E2,1.4611655E0,1.0651892E0,1.3396426E1,3.593948E0],"tree_param":{"num_deleted":"0","num_feature":"16","num_nodes":"41","size_leaf_vector":"0"}},{"base_weights":[2.6813744E-2,1.0056913E0,-1.7183851E-2,-3.0352103E-2,4.4809857E-1,-7.1927875E-2,7.0150375E-2,3.2754168E-1,8.6092496E-1,-8.6619854E-2,4.7478038E-1,-1.5324958E-1,1.5459633E-1,2.4255736E-1,7.7374667E-1,9.605668E-2,-1.2105354E-1,6.9268167E-1,-6.583186E-1,5.634738E-1,-4.4108906E-1,2.2286662E-1,-5.099824E-1,7.090337E-1,1.5924962E-1,-2.2840475E-1,6.1426693E-1,3.2726783E-2,-2.3577309E-1,1.0768279E0,3.295065E-1,-7.018632E-1,8.6690724E-1,4.2936064E-2,4.278659E-1,-6.655587E-1,4.5642954E-1,4.665468E-1,9.036225E-2,-1.2648597E-1,-8.0677086E-1,7.08541E-1,-7.078447E-3,-4.7400035E-2,1.6138049E0,-2.6811606E-1,2.5533053E-1,1.2646418E0,3.4617716E-1,1.312745E-1,8.127527E-1,8.115441E-1,-7.875106E-1,1.0550663E0,-2.5832522E-1,-1.7652322E-1,3.0092603E-1,1.2569588E0,-1.4984246E-1,-7.1811986E-1,-2.6381344E-1,5.9343725E-1,7.5145535E-2,-3.172997E-2,5.236101E-1],"categories":[],"categories_nodes":[],"categories_segments":[],"categories_sizes":[],"default_left":[true,false,true,true,true,true,true,true,false,true,true,true,true,true,false,true,true,true,false,false,true,true,true,false,true,true,true,true,true,true,true,true,true,true,true,true,true,false,true,false,false,false,false,false,false,false,false,false,false,false,false,false,false,false,false,false,false,false,false,false,false,false,false,false,false],"id":7,"left_children":[1,-1,3,5,7,9,11,13,-1,15,17,19,21,23,-1,25,27,29,-1,-1,31,33,35,-1,37,39,41,43,45,47,49,51,53,55,57,59,61,-1,63,-1,-1,-1,-1,-1,-1,-1,-1,-1,-1,-1,-1,-1,-1,-1,-1,-1,-1,-1,-1,-1,-1,-1,-1,-1,-1],"loss_changes":[4.767354E1,0E0,6.5076594E0,4.315891E0,1.1730185E0,5.9068823E0,5.7285857E0,7.315681E-1,0E0,4.4903464E0,5.2128124E0,1.7465418E1,1.0092903E1,7.350246E-1,0E0,1.9221199E1,1.0584379E1,1.9674683E0,0E0,0E0,2.1109215E1,7.3644323E0,3.4301543E0,0E0,3.7705094E-1,4.0546403E0,2.5804176E0,3.263926E1,5.5244617E0,6.1177254E-1,8.510008E-1,7.206278E0,2.4825716E0,6.151252E0,4.494742E1,1.9734383E-1,1.3701409E-1,0E0,9.379028E-1,0E0,0E0,0E0,0E0,0E0,0E0,0E0,0E0,0E0,0E0,0E0,0E0,0E0,0E0,0E0,0E0,0E0,0E0,0E0,0E0,0E0,0E0,0E0,0E0,0E0,0E0],"parents":[2147483647,0,0,2,2,3,3,4,4,5,5,6,6,7,7,9,9,10,10,11,11,12,12,13,13,15,15,16,16,17,17,20,20,21,21,22,22,24,24,25,25,26,26,27,27,28,28,29,29,30,30,31,31,32,32,33,33,34,34,35,35,36,36,38,38],"right_children":[2,-1,4,6,8,10,12,14,-1,16,18,20,22,24,-1,26,28,30,-1,-1,32,34,36,-1,38,40,42,44,46,48,50,52,54,56,58,60,62,-1,64,-1,-1,-1,-1,-1,-1,-1,-1,-1,-1,-1,-1,-1,-1,-1,-1,-1,-1,-1,-1,-1,-1,-1,-1,-1,-1],"split_conditions":[5E-1,4.0227652E-1,5E-1,4.5E0,4.5E0,5E-1,5E-1,5E-1,3.4436998E-1,5E-1,5E-1,5.5E0,9.5E0,5E-1,3.0949867E-1,2.5E0,2.5E0,5E-1,-2.6332745E-1,2.2538953E-1,7.5E0,5.5E0,5E-1,2.836135E-1,5E-1,5E-1,5E-1,5E-1,5E-1,2.5E0,1.5E0,5E-1,5E-1,5E-1,5E-1,1.05E1,1.05E1,1.8661873E-1,5E-1,-5.059439E-2,-3.2270834E-1,2.834164E-1,-2.8313787E-3,-1.8960014E-2,6.45522E-1,-1.0724642E-1,1.02132216E-1,5.058567E-1,1.3847087E-1,5.2509803E-2,3.251011E-1,3.2461765E-1,-3.1500423E-1,4.2202654E-1,-1.0333009E-1,-7.0609294E-2,1.2037041E-1,5.0278354E-1,-5.993698E-2,-2.8724796E-1,-1.05525374E-1,2.373749E-1,3.0058214E-2,-1.2691989E-2,2.0944405E-1],"split_indices":[2,0,7,3,3,4,11,12,0,11,6,3,3,11,0,3,3,10,0,0,3,3,10,0,9,10,10,6,12,3,3,9,15,10,10,3,3,0,10,0,0,0,0,0,0,0,0,0,0,0,0,0,0,0,0,0,0,0,0,0,0,0,0,0,0],"split_type":[0,0,0,0,0,0,0,0,0,0,0,0,0,0,0,0,0,0,0,0,0,0,0,0,0,0,0,0,0,0,0,0,0,0,0,0,0,0,0,0,0,0,0,0,0,0,0,0,0,0,0,0,0,0,0,0,0,0,0,0,0,0,0,0,0],"sum_hessian":[1.1055286E3,4.6612633E1,1.0589159E3,1.0306807E3,2.8235182E1,7.29278E2,3.0140274E2,2.3241442E1,4.9937396E0,7.1101215E2,1.8265839E1,8.2455E1,2.1894772E2,2.0819715E1,2.4217277E0,1.1248272E2,5.985294E2,1.5645757E1,2.6200829E0,2.3351622E1,5.9103382E1,1.9915385E2,1.9793865E1,2.0166419E0,1.8803072E1,6.95164E1,4.2966316E1,2.560337E2,3.4249573E2,6.648408E0,8.997349E0,4.96651E1,9.438285E0,1.06706024E2,9.244784E1,1.7317368E1,2.4764988E0,2.3861551E0,1.6416918E1,6.0137722E1,9.37868E0,3.7184185E1,5.7821283E0,2.4460736E2,1.1426337E1,3.2175943E2,2.0736305E1,4.7075014E0,1.9409068E0,7.281899E0,1.7154495E0,2.2061706E0,4.7458927E1,8.139562E0,1.2987236E0,5.782929E1,4.8876736E1,3.7481224E1,5.496661E1,1.4617435E1,2.6999319E0,1.4125177E0,1.0639813E0,1.353065E1,2.8862677E0],"tree_param":{"num_deleted":"0","num_feature":"16","num_nodes":"65","size_leaf_vector":"0"}},{"base_weights":[2.1629719E-2,9.871257E-1,-9.181194E-3,7.3908097E-1,-1.5369247E-2,9.094629E-1,4.764371E-3,-2.06015E-1,7.4618435E-3,1.337288E-1,1.0728995E0,-1.4749363E-1,-7.0971876E-1,3.4477E-3,1.0118308E0,-2.0861006E-1,1.2358812E0,2.4956553E-1,-9.8457086E-1,1.69363E-1,-1.9968253E-2,-2.257245E-1,6.84653E-1,8.444955E-2,2.0630417E0,9.017443E-5,-2.2402103E-1,-4.5790058E-1,-1.5715016E-1,8.062556E-1,-5.663637E-2,2.591903E0,7.894866E-1,-1.17197195E-2,9.979292E-1,-6.5210336E-1,5.2748863E-2],"categories":[],"categories_nodes":[],"categories_segments":[],"categories_sizes":[],"default_left":[true,false,true,true,true,true,false,true,true,false,false,true,true,true,false,true,false,false,false,true,true,true,false,true,true,true,true,false,false,false,false,false,false,false,false,false,false],"id":8,"left_children":[1,-1,3,5,7,9,-1,11,13,-1,-1,15,17,19,-1,21,-1,-1,-1,23,25,27,-1,29,31,33,35,-1,-1,-1,-1,-1,-1,-1,-1,-1,-1],"loss_changes":[3.1484018E1,0E0,4.763559E0,1.0514312E0,4.436415E0,7.2421837E-1,0E0,3.1084843E0,3.6689188E0,0E0,0E0,8.621231E0,3.1680784E0,3.5320487E0,0E0,1.6159039E0,0E0,0E0,0E0,1.7905521E1,3.2614176E0,1.4333329E0,0E0,1.1110662E1,1.1750221E0,8.5731535E0,8.484194E0,0E0,0E0,0E0,0E0,0E0,0E0,0E0,0E0,0E0,0E0],"parents":[2147483647,0,0,2,2,3,3,4,4,5,5,7,7,8,8,11,11,12,12,13,13,15,15,19,19,20,20,21,21,23,23,24,24,25,25,26,26],"right_children":[2,-1,4,6,8,10,-1,12,14,-1,-1,16,18,20,-1,22,-1,-1,-1,24,26,28,-1,30,32,34,36,-1,-1,-1,-1,-1,-1,-1,-1,-1,-1],"split_conditions":[5E-1,3.9485028E-1,5E-1,5E-1,1.5E0,5E-1,1.9057485E-3,5E-1,5E-1,5.349152E-2,4.291598E-1,5E-1,5E-1,5E-1,4.0473232E-1,5E-1,4.943525E-1,9.982621E-2,-3.9382836E-1,5E-1,5E-1,5E-1,2.738612E-1,5E-1,4.5E0,5E-1,5E-1,-1.8316023E-1,-6.2860064E-2,3.2250223E-1,-2.2654548E-2,1.0367612E0,3.1579465E-1,-4.687888E-3,3.9917168E-1,-2.6084134E-1,2.1099545E-2],"split_indices":[2,0,3,12,3,11,0,12,0,0,0,8,8,9,0,1,0,0,0,8,15,9,0,11,3,12,13,0,0,0,0,0,0,0,0,0,0],"split_type":[0,0,0,0,0,0,0,0,0,0,0,0,0,0,0,0,0,0,0,0,0,0,0,0,0,0,0,0,0,0,0,0,0,0,0,0,0],"sum_hessian":[1.0570596E3,3.172984E1,1.0253297E3,7.438399E0,1.01789136E3,5.8439283E0,1.5944704E0,1.0800415E2,9.098872E2,1.3333857E0,4.510543E0,9.792037E1,1.0083779E1,9.072646E2,2.6226156E0,9.459064E1,3.3297396E0,2.266228E0,7.817551E0,1.1143705E2,7.958275E2,9.3545654E1,1.0449816E0,1.0765437E2,3.7826784E0,7.255094E2,7.031815E1,2.00349E1,7.351075E1,1.6831015E1,9.082336E1,1.941339E0,1.8413392E0,7.1799976E2,7.50961E0,2.7078888E1,4.323926E1],"tree_param":{"num_deleted":"0","num_feature":"16","num_nodes":"37","size_leaf_vector":"0"}},{"base_weights":[1.759838E-2,9.675569E-1,-3.6932004E-3,-1.1309966E-2,4.8898822E-1,-8.187527E-3,-9.0546906E-1,1.9502595E-1,8.117804E-1,-1.1730158E-2,1.2162402E0,7.264478E-1,3.1602923E-2,-1.4777165E-2,8.96969E-1,-2.3067245E-2,3.160648E-1,5.165372E-1,-2.6953496E-2,1.9867316E-1,7.9364914E-1],"categories":[],"categories_nodes":[],"categories_segments":[],"categories_sizes":[],"default_left":[true,false,true,true,true,true,false,true,false,true,false,false,false,true,false,true,true,false,false,false,false],"id":9,"left_children":[1,-1,3,5,7,9,-1,11,-1,13,-1,-1,-1,15,-1,17,19,-1,-1,-1,-1],"loss_changes":[2.0880472E1,0E0,3.797738E0,2.7737577E0,1.3036883E0,4.3245444E0,0E0,7.916732E-1,0E0,2.7593718E0,0E0,0E0,0E0,2.7211227E0,0E0,2.0401156E0,1.2022023E0,0E0,0E0,0E0,0E0],"parents":[2147483647,0,0,2,2,3,3,4,4,5,5,7,7,9,9,13,13,15,15,16,16],"right_children":[2,-1,4,6,8,10,-1,12,-1,14,-1,-1,-1,16,-1,18,20,-1,-1,-1,-1],"split_conditions":[5E-1,3.8702276E-1,5E-1,1.35E1,2.5E0,1.05E1,-3.6218762E-1,5E-1,3.2471216E-1,5E-1,4.8649606E-1,2.9057914E-1,1.2641169E-2,5E-1,3.5878763E-1,5E-1,4.5E0,2.0661488E-1,-1.0781399E-2,7.946926E-2,3.1745967E-1],"split_indices":[2,0,1,3,3,3,0,11,0,0,0,0,0,7,0,3,3,0,0,0,0],"split_type":[0,0,0,0,0,0,0,0,0,0,0,0,0,0,0,0,0,0,0,0,0],"sum_hessian":[1.0311752E3,2.1630972E1,1.0095442E3,9.951366E2,1.4407589E1,9.9267926E2,2.4573193E0,8.380118E0,6.0274706E0,9.9080304E2,1.8762656E0,1.1606612E0,7.2194567E0,9.884723E2,2.3307605E0,9.652166E2,2.3255661E1,5.9585624E0,9.5925806E2,1.980382E1,3.4518414E0],"tree_param":{"num_deleted":"0","num_feature":"16","num_nodes":"21","size_leaf_vector":"0"}},{"base_weights":[1.4648364E-2,9.445415E-1,-3.4423265E-5,-5.5097044E-3,3.922262E-1,-3.1668185E-3,-7.735269E-1,1.547348E-1,7.1338654E-1,-5.866248E-3,1.0279032E0,5.9150535E-1,2.6508467E-2,8.2090414E-1,1.8858035E-1,-9.8848854E-5,-3.752679E-1,-1.666772E-2,2.3852943E-1,-5.6052625E-1,6.4622855E-1,2.4242982E-2,-7.4179165E-2,3.1203756E-1,-1.0292863E0],"categories":[],"categories_nodes":[],"categories_segments":[],"categories_sizes":[],"default_left":[true,false,true,true,true,true,false,true,true,true,false,false,false,false,false,true,true,true,true,false,false,false,false,false,false],"id":10,"left_children":[1,-1,3,5,7,9,-1,11,13,15,-1,-1,-1,-1,-1,17,19,21,23,-1,-1,-1,-1,-1,-1],"loss_changes":[1.3881699E1,0E0,2.154006E0,1.7773249E0,9.426601E-1,2.7534323E0,0E0,5.0035536E-1,1.6074371E-1,2.0995982E0,0E0,0E0,0E0,0E0,0E0,3.8445761E0,3.229211E0,2.1410813E0,6.2047653E0,0E0,0E0,0E0,0E0,0E0,0E0],"parents":[2147483647,0,0,2,2,3,3,4,4,5,5,7,7,8,8,9,9,15,15,16,16,17,17,18,18],"right_children":[2,-1,4,6,8,10,-1,12,14,16,-1,-1,-1,-1,-1,18,20,22,24,-1,-1,-1,-1,-1,-1],"split_conditions":[5E-1,3.7781662E-1,5E-1,1.35E1,2.5E0,1.05E1,-3.0941078E-1,5E-1,6.5E0,9.5E0,4.1116127E-1,2.3660214E-1,1.0603387E-2,3.2836166E-1,7.5432144E-2,6.5E0,5E-1,5E-1,5E-1,-2.242105E-1,2.5849143E-1,9.697193E-3,-2.9671667E-2,1.24815024E-1,-4.1171452E-1],"split_indices":[2,0,1,3,3,3,0,9,3,3,0,0,0,0,0,3,10,10,4,0,0,0,0,0,0],"split_type":[0,0,0,0,0,0,0,0,0,0,0,0,0,0,0,0,0,0,0,0,0,0,0,0,0],"sum_hessian":[1.01571686E3,1.4804205E1,1.00091266E3,9.881063E2,1.2806304E1,9.861023E2,2.0040448E0,8.214012E0,4.592292E0,9.8451904E2,1.5832444E0,1.0442071E0,7.169805E0,3.343169E0,1.2491229E0,9.7036914E2,1.4149924E1,9.0823694E2,6.21322E1,1.2359651E1,1.7902738E0,5.3105206E2,3.771848E2,5.943975E1,2.6924462E0],"tree_param":{"num_deleted":"0","num_feature":"16","num_nodes":"25","size_leaf_vector":"0"}},{"base_weights":[1.0575679E-2,9.1591483E-1,3.7103836E-4,-1.9199984E-3,7.8756803E-1,-8.096948E-3,2.5720984E-1,2.428285E-3,-1.2904316E-1,1.6048858E-1,7.3557526E-1,-1.9185173E-3,1.3044147E0,9.30434E-1,-1.901941E-1,8.7896615E-2,6.3982934E-1,5.479012E-3,-4.2001176E-1,1.3445456E0,2.3191214E-1,-2.6826194E-1,5.0125E-1,5.789876E-1,2.031874E-2,1.5503815E-3,5.634219E-1,7.372448E-1,-5.792882E-1,-7.12852E-1,-8.491486E-2,-5.013286E-1,1.3815958E0,3.3730432E-1,-3.7625026E-2],"categories":[],"categories_nodes":[],"categories_segments":[],"categories_sizes":[],"default_left":[true,false,true,true,false,true,true,true,true,true,false,true,false,true,true,true,false,true,true,false,false,true,true,false,true,false,false,false,false,false,false,false,false,false,false],"id":11,"left_children":[1,-1,3,5,-1,7,9,11,13,15,-1,17,-1,19,21,23,-1,25,27,-1,-1,29,31,-1,33,-1,-1,-1,-1,-1,-1,-1,-1,-1,-1],"loss_changes":[9.282669E0,0E0,1.7952725E0,1.5910501E0,0E0,1.2358356E0,9.527378E-1,5.061226E0,5.212256E0,6.5812427E-1,0E0,2.7607403E0,0E0,9.640651E-1,4.14562E0,6.1842036E-1,0E0,1.9222465E0,3.2875762E0,0E0,0E0,5.4352784E0,7.6541076E0,0E0,3.3831435E-1,0E0,0E0,0E0,0E0,0E0,0E0,0E0,0E0,0E0,0E0],"parents":[2147483647,0,0,2,2,3,3,5,5,6,6,7,7,8,8,9,9,11,11,13,13,14,14,15,15,17,17,18,18,21,21,22,22,24,24],"right_children":[2,-1,4,6,-1,8,10,12,14,16,-1,18,-1,20,22,24,-1,26,28,-1,-1,30,32,-1,34,-1,-1,-1,-1,-1,-1,-1,-1,-1,-1],"split_conditions":[5E-1,3.6636594E-1,5E-1,5E-1,3.150272E-1,5E-1,4.5E0,5E-1,5E-1,5E-1,2.942301E-1,9.5E0,5.217659E-1,5E-1,5.5E0,5E-1,2.5593174E-1,8.5E0,5E-1,5.3781825E-1,9.2764854E-2,5E-1,5E-1,2.3159504E-1,5E-1,6.201526E-4,2.2536877E-1,2.948979E-1,-2.3171528E-1,-2.851408E-1,-3.3965945E-2,-2.0053144E-1,5.5263835E-1,1.3492173E-1,-1.5050011E-2],"split_indices":[2,0,0,7,0,15,3,13,9,12,0,3,0,10,3,11,0,3,11,0,0,13,11,0,9,0,0,0,0,0,0,0,0,0,0],"split_type":[0,0,0,0,0,0,0,0,0,0,0,0,0,0,0,0,0,0,0,0,0,0,0,0,0,0,0,0,0,0,0,0,0,0,0],"sum_hessian":[1.00380023E3,1.0199086E1,9.9360114E2,9.9171246E2,1.888692E0,9.695693E2,2.214314E1,8.928498E2,7.671951E1,1.9529867E1,2.6132734E0,8.90874E2,1.975739E0,3.4107542E0,7.330876E1,1.7988964E1,1.5409017E0,8.7635516E2,1.4518888E1,1.5606779E0,1.8500763E0,6.642144E1,6.8873196E0,1.260579E0,1.6728386E1,8.712234E2,5.1317472E0,1.3175125E0,1.3201376E1,1.85507E1,4.7870743E1,3.4214015E0,3.465918E0,1.8402004E0,1.48881855E1],"tree_param":{"num_deleted":"0","num_feature":"16","num_nodes":"35","size_leaf_vector":"0"}},{"base_weights":[9.338085E-3,8.7994456E-1,2.1870853E-3,-2.043685E-3,3.289644E-1,-3.8342949E-3,6.9278973E-1,1.3547215E-1,6.343559E-1,3.8606247E-1,-6.922087E-3,7.845919E-1,1.06485456E-1,5.7383794E-1,-1.5266956E-1,-1.3168862E-1,7.470769E-3,-2.9489089E-2,7.851559E-1,-8.769962E-2,-5.688368E-1,1.07344136E-1,-2.566113E-2,-1.3324362E-1,8.453329E-1,1.677191E-1,-8.28961E-1,5.29276E-2,7.537115E-1,-4.4605706E-2,2.0328838E-1],"categories":[],"categories_nodes":[],"categories_segments":[],"categories_sizes":[],"default_left":[true,false,true,true,true,true,false,false,true,true,true,false,false,true,false,true,true,false,false,true,true,true,true,false,false,false,false,false,false,false,false],"id":12,"left_children":[1,-1,3,5,7,9,-1,-1,11,13,15,-1,-1,17,-1,19,21,-1,-1,23,25,27,29,-1,-1,-1,-1,-1,-1,-1,-1],"loss_changes":[6.18618E0,0E0,1.3650327E0,1.2160326E0,6.597755E-1,1.1749692E0,0E0,0E0,2.8308225E-1,8.6335945E-1,1.7375869E0,0E0,0E0,7.7493703E-1,0E0,1.8745148E0,2.874929E0,0E0,0E0,4.02664E0,1.857121E0,7.571954E0,2.8395324E0,0E0,0E0,0E0,0E0,0E0,0E0,0E0,0E0],"parents":[2147483647,0,0,2,2,3,3,4,4,5,5,8,8,9,9,10,10,13,13,15,15,16,16,19,19,20,20,21,21,22,22],"right_children":[2,-1,4,6,8,10,-1,-1,12,14,16,-1,-1,18,-1,20,22,-1,-1,24,26,28,30,-1,-1,-1,-1,-1,-1,-1,-1],"split_conditions":[5E-1,3.5197783E-1,5E-1,5E-1,2.5E0,5E-1,2.771159E-1,5.418886E-2,5E-1,5E-1,1.5E0,3.1383678E-1,4.2594183E-2,5E-1,-6.1067827E-2,5E-1,2.5E0,-1.1795635E-2,3.1406236E-1,5E-1,5E-1,5E-1,5E-1,-5.329745E-2,3.381332E-1,6.708764E-2,-3.3158442E-1,2.1171039E-2,3.014846E-1,-1.7842283E-2,8.131535E-2],"split_indices":[2,0,1,0,3,3,0,0,10,12,3,0,0,11,0,12,3,0,0,8,8,6,8,0,0,0,0,0,0,0,0],"split_type":[0,0,0,0,0,0,0,0,0,0,0,0,0,0,0,0,0,0,0,0,0,0,0,0,0,0,0,0,0,0,0],"sum_hessian":[9.9296027E2,7.095199E0,9.8586505E2,9.742453E2,1.1619761E1,9.7273303E2,1.512285E0,7.996732E0,3.6230288E0,6.668514E0,9.660645E2,2.4417527E0,1.181276E0,4.8966265E0,1.7718871E0,9.907439E1,8.669901E2,1.4933792E0,3.4032474E0,9.110715E1,7.967241E0,2.1541113E2,6.51579E2,8.768422E1,3.4229264E0,2.1720889E0,5.795152E0,1.9968213E2,1.5729005E1,6.025276E2,4.9051373E1],"tree_param":{"num_deleted":"0","num_feature":"16","num_nodes":"31","size_leaf_vector":"0"}},{"base_weights":[7.336071E-3,8.3570546E-1,2.2720264E-3,-2.1509707E-2,6.179914E-2,-3.1644538E-2,3.735384E-1,-1.2646633E-1,1.2981872E-1,1.2475578E-2,-6.893985E-2,5.185061E-1,-4.8344642E-1,3.5698885E-1,-3.4038046E-1,1.5054612E-1,-9.944616E-1,-2.274366E-2,4.6996602E-1,3.4247473E-1,-1.2465817E-1,8.1842357E-1,2.315414E-1,8.111871E-2,3.6636618E-1,-4.883061E-1,5.744578E-1,2.535702E-1,5.263938E-2,9.88221E-2,-1.6174428E-1,1.4453483E-1,7.9139096E-1,-1.2261476E-1,4.405241E-1,-8.835103E-2,-4.599643E-1,9.487113E-1,3.0889696E-1,8.877519E-2,5.862775E-1,6.186677E-1,-5.346548E-1,2.016492E-1,1.2559998E0,-7.148834E-2,6.795453E-1,7.2532445E-1,-3.1529139E-3,6.8698865E-1,-1.3492114E-2,-2.3505323E-1,7.8918505E-1,2.4773437E-1,-3.1884298E-1,-4.2031246E-1,4.447342E-1,6.6697633E-1,2.0920695E-1,-1.0651144E-1,2.3465206E-1,-6.852224E-1,1.6267866E0,-5.7715297E-1,1.3709953E-1,-1.0104727E-1,4.5379674E-1,-1.23977244E-1,9.221745E-1,1.1776297E0,-1.6908945E-1,7.8669006E-1,2.4049726E-1,2.1054909E-1,-1.8801893E-1],"categories":[],"categories_nodes":[],"categories_segments":[],"categories_sizes":[],"default_left":[true,false,true,true,true,true,true,true,true,true,true,true,false,true,true,true,false,true,true,true,true,true,true,false,false,true,true,true,true,true,true,true,false,true,true,true,true,false,false,false,false,false,true,true,false,true,true,true,true,false,false,false,false,false,false,false,false,false,false,false,false,false,false,false,false,false,false,false,false,false,false,false,false,false,false],"id":13,"left_children":[1,-1,3,5,7,9,11,13,15,17,19,21,-1,23,25,27,-1,29,31,33,35,37,39,-1,-1,41,43,45,47,49,51,53,-1,55,57,59,61,-1,-1,-1,-1,-1,63,65,-1,67,69,71,73,-1,-1,-1,-1,-1,-1,-1,-1,-1,-1,-1,-1,-1,-1,-1,-1,-1,-1,-1,-1,-1,-1,-1,-1,-1,-1],"loss_changes":[4.1435347E0,0E0,1.3932129E0,2.827565E0,3.61392E0,1.1306558E0,2.4458003E0,7.884756E0,4.9703026E0,5.092121E0,8.575569E0,1.1527133E0,0E0,3.1110764E-2,7.3923173E0,2.0442076E0,0E0,4.9802547E0,2.2484875E0,2.090866E0,3.9593678E0,1.86975E-1,4.2219794E-1,0E0,0E0,2.6795044E0,1.7220354E0,1.377527E1,3.9750004E0,1.0403147E1,9.766824E0,6.7426133E-1,0E0,1.6325595E0,1.8042078E0,1.7712934E0,1.6092596E1,0E0,0E0,0E0,0E0,0E0,1.3488102E0,5.203297E-1,0E0,3.0941107E0,1.8375551E1,5.2128315E-2,3.940481E0,0E0,0E0,0E0,0E0,0E0,0E0,0E0,0E0,0E0,0E0,0E0,0E0,0E0,0E0,0E0,0E0,0E0,0E0,0E0,0E0,0E0,0E0,0E0,0E0,0E0,0E0],"parents":[2147483647,0,0,2,2,3,3,4,4,5,5,6,6,7,7,8,8,9,9,10,10,11,11,13,13,14,14,15,15,17,17,18,18,19,19,20,20,21,21,22,22,25,25,26,26,27,27,28,28,29,29,30,30,31,31,33,33,34,34,35,35,36,36,42,42,43,43,45,45,46,46,47,47,48,48],"right_children":[2,-1,4,6,8,10,12,14,16,18,20,22,-1,24,26,28,-1,30,32,34,36,38,40,-1,-1,42,44,46,48,50,52,54,-1,56,58,60,62,-1,-1,-1,-1,-1,64,66,-1,68,70,72,74,-1,-1,-1,-1,-1,-1,-1,-1,-1,-1,-1,-1,-1,-1,-1,-1,-1,-1,-1,-1,-1,-1,-1,-1,-1,-1],"split_conditions":[5E-1,3.342822E-1,4.5E0,5E-1,5E-1,2.5E0,5E-1,5.5E0,5E-1,5E-1,5E-1,5E-1,-1.9337857E-1,5E-1,7.5E0,5E-1,-3.9778465E-1,5E-1,5E-1,5E-1,5E-1,2.5E0,1.5E0,3.2447483E-2,1.4654647E-1,5E-1,5E-1,5.5E0,5E-1,5E-1,5E-1,5E-1,3.165564E-1,3.5E0,3.5E0,5E-1,5E-1,3.794845E-1,1.2355878E-1,3.5510074E-2,2.34511E-1,2.4746709E-1,5E-1,8.5E0,5.023999E-1,5E-1,7.5E0,6.5E0,5.5E0,2.7479547E-1,-5.3968458E-3,-9.402129E-2,3.1567404E-1,9.909375E-2,-1.2753719E-1,-1.6812499E-1,1.7789368E-1,2.6679054E-1,8.368278E-2,-4.2604577E-2,9.386083E-2,-2.7408895E-1,6.5071464E-1,-2.3086119E-1,5.4839816E-2,-4.0418908E-2,1.815187E-1,-4.9590897E-2,3.688698E-1,4.710519E-1,-6.763578E-2,3.1467602E-1,9.619891E-2,8.4219635E-2,-7.5207576E-2],"split_indices":[2,0,3,4,11,3,6,3,4,6,11,10,0,9,3,10,0,10,10,9,6,3,3,0,0,9,10,3,9,9,15,15,0,3,3,13,8,0,0,0,0,0,6,3,0,12,3,3,3,0,0,0,0,0,0,0,0,0,0,0,0,0,0,0,0,0,0,0,0,0,0,0,0,0,0],"split_type":[0,0,0,0,0,0,0,0,0,0,0,0,0,0,0,0,0,0,0,0,0,0,0,0,0,0,0,0,0,0,0,0,0,0,0,0,0,0,0,0,0,0,0,0,0,0,0,0,0,0,0,0,0,0,0,0,0,0,0,0,0,0,0,0,0,0,0,0,0,0,0,0,0,0,0],"sum_hessian":[9.8720807E2,5.001749E0,9.822063E2,7.022774E2,2.7992886E2,6.856083E2,1.6669163E1,7.406674E1,2.0586212E2,3.1437274E2,3.712355E2,1.45952015E1,2.073962E0,2.2514395E1,5.155235E1,2.0298593E2,2.8761814E0,2.927835E2,2.1589228E1,4.3666084E1,3.2756943E2,6.230976E0,8.364225E0,1.0574018E0,2.1456993E1,4.477814E1,6.774206E0,9.8133415E1,1.04852516E2,1.5634123E2,1.3644229E2,1.1448103E1,1.0141125E1,7.559179E0,3.6106903E1,2.967055E2,3.0863941E1,4.2757144E0,1.9552616E0,6.8554535E0,1.508772E0,1.3032702E0,4.3474873E1,5.216573E0,1.5576329E0,5.6131813E1,4.2001606E1,7.111313E0,9.77412E1,2.424716E1,1.3209407E2,1.2737549E2,9.066798E0,9.743489E0,1.7046138E0,5.127733E0,2.4314454E0,1.7293613E1,1.8813292E1,2.815462E2,1.5159296E1,2.8463074E1,2.400866E0,4.1020557E1,2.4543145E0,2.6429884E0,2.5735848E0,5.4146812E1,1.9850001E0,2.6223007E1,1.5778599E1,5.7596784E0,1.3516345E0,4.5270428E1,5.247078E1],"tree_param":{"num_deleted":"0","num_feature":"16","num_nodes":"75","size_leaf_vector":"0"}},{"base_weights":[7.941119E-3,7.835087E-1,4.228612E-3,1.6011616E-2,-1.3354836E-1,1.2854477E-2,8.9859307E-1,-5.320468E-1,-3.5355985E-2,4.7837475E-1,9.9844765E-3,1.9270037E0,-5.993036E-1,-3.9450267E-1,-8.10302E-1,-1.03454046E-1,7.1126366E-1,-1.9301191E-2,6.7227757E-1,-9.899753E-2,2.245812E-2,-4.9496073E-1,7.0441306E-2,-5.056418E-1,3.284166E-2,1.4639677E0,1.2848453E-1,-4.5330098E-1,8.775535E-3,8.7985E-2,7.4921525E-4,4.2336053E-1,-6.621329E-1,2.3774768E-1,-3.354367E-1,-5.518044E-1,1.0204726E0,-8.3549386E-1,-1.359474E-1,-2.8796792E-2,5.917204E-1,3.1624386E-1,-1.2756562E-1,-1.6246635E-2,2.2704877E-1,-3.3547875E-1,-7.2777534E-1,3.4953326E-1,-6.473272E-1,1.277293E-3,-9.236906E-1],"categories":[],"categories_nodes":[],"categories_segments":[],"categories_sizes":[],"default_left":[true,false,true,true,true,true,true,true,true,true,true,false,false,true,false,true,true,false,false,true,true,false,false,true,true,false,true,true,true,true,true,false,true,true,true,false,false,false,false,false,false,false,false,false,false,false,false,false,false,false,false],"id":14,"left_children":[1,-1,3,5,7,9,11,13,15,17,19,-1,-1,21,-1,23,25,-1,-1,27,29,-1,-1,31,33,-1,35,37,39,41,43,-1,45,47,49,-1,-1,-1,-1,-1,-1,-1,-1,-1,-1,-1,-1,-1,-1,-1,-1],"loss_changes":[2.771713E0,0E0,1.5609506E0,2.4556756E0,2.945477E0,1.1753527E0,5.994304E0,2.5079155E-1,3.2182746E0,5.332111E-1,1.1970165E0,0E0,0E0,5.917783E-1,0E0,3.171504E0,2.135378E0,0E0,0E0,3.457757E0,1.1229547E0,0E0,0E0,2.4070148E0,3.3944662E0,0E0,3.039832E0,2.4474902E0,1.5575548E0,9.706001E0,2.2883394E0,0E0,3.26581E-2,3.0764704E0,3.1936345E0,0E0,0E0,0E0,0E0,0E0,0E0,0E0,0E0,0E0,0E0,0E0,0E0,0E0,0E0,0E0,0E0],"parents":[2147483647,0,0,2,2,3,3,4,4,5,5,6,6,7,7,8,8,9,9,10,10,13,13,15,15,16,16,19,19,20,20,23,23,24,24,26,26,27,27,28,28,29,29,30,30,32,32,33,33,34,34],"right_children":[2,-1,4,6,8,10,12,14,16,18,20,-1,-1,22,-1,24,26,-1,-1,28,30,-1,-1,32,34,-1,36,38,40,42,44,-1,46,48,50,-1,-1,-1,-1,-1,-1,-1,-1,-1,-1,-1,-1,-1,-1,-1,-1],"split_conditions":[5E-1,3.134035E-1,5E-1,5E-1,5E-1,5E-1,5E-1,5E-1,5.5E0,5E-1,1.5E0,7.708015E-1,-2.3972145E-1,4.5E0,-3.2412082E-1,5E-1,5E-1,-7.7204765E-3,2.6891103E-1,5E-1,2.5E0,-1.979843E-1,2.8176522E-2,1.5E0,5E-1,5.855871E-1,5E-1,5E-1,5E-1,5E-1,5E-1,1.6934422E-1,2.5E0,5E-1,3.5E0,-2.2072177E-1,4.0818906E-1,-3.3419755E-1,-5.4378964E-2,-1.1518717E-2,2.3668817E-1,1.2649755E-1,-5.102625E-2,-6.4986544E-3,9.081951E-2,-1.341915E-1,-2.9111013E-1,1.398133E-1,-2.589309E-1,5.109172E-4,-3.6947626E-1],"split_indices":[2,0,15,13,11,3,10,6,3,11,3,0,0,3,0,13,10,0,0,9,3,0,0,3,8,0,8,11,8,10,8,0,3,6,3,0,0,0,0,0,0,0,0,0,0,0,0,0,0,0,0],"split_type":[0,0,0,0,0,0,0,0,0,0,0,0,0,0,0,0,0,0,0,0,0,0,0,0,0,0,0,0,0,0,0,0,0,0,0,0,0,0,0,0,0,0,0,0,0,0,0,0,0,0,0],"sum_hessian":[9.627849E2,3.5860655E0,9.5919885E2,8.84443E2,7.475581E1,8.8230145E2,2.141572E0,1.3905223E1,6.0850594E1,4.390998E0,8.7791046E2,1.0999242E0,1.0416478E0,1.0923439E1,2.981784E0,5.6553837E1,4.2967544E0,1.4836032E0,2.9073946E0,8.945007E1,7.884604E2,8.929523E0,1.9939159E0,1.3628458E1,4.292538E1,1.2151934E0,3.0815609E0,2.0115242E1,6.933483E1,1.9545116E2,5.930092E2,1.7189077E0,1.190955E1,2.7807838E1,1.5117541E1,1.9646025E0,1.1169584E0,8.384724E0,1.1730519E1,6.602965E1,3.3051832E0,9.470037E1,1.0075078E2,5.5244684E2,4.0562393E1,3.015303E0,8.894247E0,2.522676E1,2.581077E0,1.0248928E1,4.8686132E0],"tree_param":{"num_deleted":"0","num_feature":"16","num_nodes":"51","size_leaf_vector":"0"}},{"base_weights":[4.2047654E-3,7.2512776E-1,1.4656748E-3,-2.8031204E-2,3.7671953E-2,1.4335117E-1,-5.60267E-2,2.5371661E-2,3.782328E-1,4.8193347E-1,-2.6898074E-1,-1.2577854E-1,4.59078E-2,1.0283685E-2,3.3735254E-1,1.7833563E0,-4.0679926E-1,-4.0617657E-1,9.720153E-1,-4.5266238E-1,9.6046865E-1,-8.112226E-2,-4.5019022E-1,3.0081897E-4,5.656999E-1,-2.2937939E-1,4.213949E-2,1.0522411E0,2.078124E-1,-2.2473408E-1,-7.5878954E-1,-6.6544604E-1,-1.1292475E-1,1.6070356E0,4.146787E-1,-1.380126E-2,-5.3691095E-1,1.762963E-1,-1.5654223E-1,-3.7474114E-2,-4.9878243E-1,-5.3810024E-1,3.875918E-2,-4.7358897E-1,1.1516527E0,-3.0571517E-1,1.2282823E0,5.896931E-2,-4.705069E-1,-3.063718E-1,4.4074747E-1,5.6651485E-1,-5.6468E-1,-1.7072265E-1,7.5732344E-1,2.8227228E-1,-6.22888E-1,7.830104E-3,6.4795893E-1,1.226793E-2,-3.115146E-1,-7.4819654E-1,5.130829E-1,-7.8954303E-1,-3.5396412E-1,-6.925793E-1,-2.1280989E-1,1.4229152E-1,-1.8294297E-1,1.5579196E0,5.6026256E-1,4.8100337E-1,-4.1166672E-1,1.20149925E-1,-4.940302E-2,-7.177291E-1,-1.4810567E-1,6.6202706E-1,2.28843E-1],"categories":[],"categories_nodes":[],"categories_segments":[],"categories_sizes":[],"default_left":[true,false,true,true,true,true,true,true,true,true,true,true,true,true,true,false,true,true,true,true,false,true,true,true,true,true,true,false,true,true,false,false,false,false,true,true,false,true,true,true,true,true,true,false,true,true,false,true,true,false,true,false,false,false,false,false,false,false,false,false,false,false,false,false,false,false,false,false,false,false,false,false,false,false,false,false,false,false,false],"id":15,"left_children":[1,-1,3,5,7,9,11,13,15,17,19,21,23,25,27,-1,29,31,33,35,-1,37,39,41,43,45,47,-1,49,51,-1,-1,-1,-1,53,55,-1,57,59,61,63,65,67,-1,69,71,-1,73,75,-1,77,-1,-1,-1,-1,-1,-1,-1,-1,-1,-1,-1,-1,-1,-1,-1,-1,-1,-1,-1,-1,-1,-1,-1,-1,-1,-1,-1,-1],"loss_changes":[1.8907173E0,0E0,1.021394E0,2.5367985E0,1.7889261E0,1.0500684E1,3.2321076E0,1.9521196E0,1.7155092E1,1.8305023E1,8.143885E0,3.870339E0,4.387517E0,3.04304E0,1.5532346E0,0E0,4.9403882E-1,1.0910201E0,8.822758E0,1.1158304E0,0E0,4.653474E0,6.3130045E-1,3.5648437E0,9.636885E0,5.5796947E0,3.0607967E0,0E0,2.2243896E0,2.5405002E0,0E0,0E0,0E0,0E0,3.2638264E0,1.2432475E0,0E0,4.3223724E0,4.838565E0,2.1428466E0,9.380894E-1,4.2938805E-1,3.714159E0,0E0,1.4908829E0,3.969235E0,0E0,2.2685905E0,7.932117E-1,0E0,4.306774E-1,0E0,0E0,0E0,0E0,0E0,0E0,0E0,0E0,0E0,0E0,0E0,0E0,0E0,0E0,0E0,0E0,0E0,0E0,0E0,0E0,0E0,0E0,0E0,0E0,0E0,0E0,0E0,0E0],"parents":[2147483647,0,0,2,2,3,3,4,4,5,5,6,6,7,7,8,8,9,9,10,10,11,11,12,12,13,13,14,14,16,16,17,17,18,18,19,19,21,21,22,22,23,23,24,24,25,25,26,26,28,28,29,29,34,34,35,35,37,37,38,38,39,39,40,40,41,41,42,42,44,44,45,45,47,47,48,48,50,50],"right_children":[2,-1,4,6,8,10,12,14,16,18,20,22,24,26,28,-1,30,32,34,36,-1,38,40,42,44,46,48,-1,50,52,-1,-1,-1,-1,54,56,-1,58,60,62,64,66,68,-1,70,72,-1,74,76,-1,78,-1,-1,-1,-1,-1,-1,-1,-1,-1,-1,-1,-1,-1,-1,-1,-1,-1,-1,-1,-1,-1,-1,-1,-1,-1,-1,-1,-1],"split_conditions":[5E-1,2.900511E-1,3.5E0,5E-1,5E-1,5E-1,5E-1,5E-1,5E-1,1.5E0,2.5E0,5E-1,5E-1,5E-1,5E-1,7.1334255E-1,5E-1,5E-1,2.5E0,1.5E0,3.8418746E-1,5E-1,1.5E0,5E-1,1.5E0,5E-1,5E-1,4.2089644E-1,4.5E0,5E-1,-3.0351582E-1,-2.6617843E-1,-4.51699E-2,6.428143E-1,5E-1,5E-1,-2.1476439E-1,2.5E0,2.5E0,5E-1,5E-1,2.5E0,5E-1,-1.8943559E-1,2.5E0,5E-1,4.9131295E-1,5.5E0,5.5E0,-1.2254872E-1,5.5E0,2.2660594E-1,-2.25872E-1,-6.8289064E-2,3.0292937E-1,1.12908915E-1,-2.4915521E-1,3.1320415E-3,2.591836E-1,4.907172E-3,-1.24605834E-1,-2.9927862E-1,2.0523317E-1,-3.158172E-1,-1.4158565E-1,-2.7703175E-1,-8.5123956E-2,5.6916606E-2,-7.317719E-2,6.231679E-1,2.2410503E-1,1.9240135E-1,-1.646667E-1,4.805997E-2,-1.9761208E-2,-2.8709164E-1,-5.9242267E-2,2.6481083E-1,9.15372E-2],"split_indices":[2,0,3,9,13,10,10,8,10,3,3,15,12,9,9,0,6,11,3,3,0,11,3,11,3,6,15,0,3,8,0,0,0,0,11,12,0,3,3,3,11,3,8,0,3,11,0,3,3,0,3,0,0,0,0,0,0,0,0,0,0,0,0,0,0,0,0,0,0,0,0,0,0,0,0,0,0,0,0],"split_type":[0,0,0,0,0,0,0,0,0,0,0,0,0,0,0,0,0,0,0,0,0,0,0,0,0,0,0,0,0,0,0,0,0,0,0,0,0,0,0,0,0,0,0,0,0,0,0,0,0,0,0,0,0,0,0,0,0,0,0,0,0,0,0,0,0,0,0,0,0,0,0,0,0,0,0,0,0,0,0],"sum_hessian":[9.5702167E2,2.6241262E0,9.543975E2,5.260532E2,4.2834433E2,7.32868E1,4.5276642E2,4.1444983E2,1.3894494E1,4.014957E1,3.3137226E1,2.6867993E2,1.8408649E2,3.963162E2,1.8133627E1,4.5244727E0,9.370022E0,1.43379755E1,2.5811596E1,2.9379675E1,3.7575521E0,2.3726915E2,3.1410788E1,1.7015732E2,1.3929165E1,4.5770103E1,3.5054608E2,1.6891084E0,1.6444519E1,7.255578E0,2.1144438E0,6.9362817E0,7.401694E0,1.1184611E1,1.4626985E1,4.9191318E0,2.4460543E1,5.3461227E1,1.8380792E2,3.495247E0,2.791554E1,1.0477994E1,1.5967934E2,5.0910563E0,8.838108E0,4.424341E1,1.5266969E0,3.4026056E2,1.0285546E1,5.0287395E0,1.1415779E1,1.9801497E0,5.2754283E0,5.5856943E0,9.04129E0,3.6711648E0,1.247967E0,4.0140602E1,1.3320626E1,8.841692E1,9.539101E1,1.3690013E0,2.1262455E0,7.8010125E0,2.0114529E1,6.3386726E0,4.1393213E0,1.0909255E2,5.0586773E1,4.2702446E0,4.567864E0,4.8311315E0,3.9412277E1,2.1741322E2,1.2284733E2,5.1275015E0,5.1580443E0,4.5452547E0,6.8705244E0],"tree_param":{"num_deleted":"0","num_feature":"16","num_nodes":"79","size_leaf_vector":"0"}},{"base_weights":[3.0890023E-3,6.634496E-1,1.0008232E-3,-3.762513E-3,2.1177645E-1,-1.2834186E-2,1.0308918E-1,1.4370139E-1,6.26714E-1,-1.7429782E-2,2.2071421E-1,-7.883256E-2,3.854488E-1,5.1899886E-1,9.4094835E-2,-1.902891E-2,6.024908E-1,9.7675765E-1,1.0170833E-1,-1.3455065E-1,1.067182E0,1.0761446E0,3.1142047E-1,6.226104E-2,2.0357615E-1,-1.1854963E-2,-8.742638E-2,1.970648E-1,-3.9319187E-1,7.5069326E-1,-1.981124E-1,2.2423884E-1,6.3248545E-1,2.664337E-1,-5.679327E-3,-1.3744436E-1,5.3289205E-1,-9.154168E-4,-1.535964E-1,-1.6824484E-1,9.621462E-1,4.7904283E-1,-2.7135905E-4,-2.5483647E-1,4.3624958E-1,2.6662523E-1,-2.7230453E-1,2.3568726E-1,7.3965824E-1,-1.4437442E-1,5.99232E-1,2.6030026E-2,-5.3372458E-2],"categories":[],"categories_nodes":[],"categories_segments":[],"categories_sizes":[],"default_left":[true,false,true,true,true,true,true,true,false,true,true,true,true,false,true,true,false,false,true,true,false,false,true,true,true,true,true,true,false,false,true,true,true,true,true,false,false,false,false,false,false,false,false,false,false,false,false,false,false,false,false,false,false],"id":16,"left_children":[1,-1,3,5,7,9,11,13,-1,15,17,19,21,-1,23,25,-1,-1,27,29,-1,-1,31,33,35,37,39,41,-1,-1,43,45,47,49,51,-1,-1,-1,-1,-1,-1,-1,-1,-1,-1,-1,-1,-1,-1,-1,-1,-1,-1],"loss_changes":[1.2970293E0,0E0,9.436565E-1,8.9245754E-1,4.9666822E-1,9.143034E-1,3.731614E0,3.07525E-1,0E0,8.370849E-1,1.3800884E0,2.994721E0,1.1171484E0,0E0,5.050552E-2,4.0704516E-1,0E0,0E0,8.006047E-1,2.5946078E0,0E0,0E0,6.156306E-1,2.16315E-1,4.823775E-1,1.1688055E0,6.8454485E0,7.5209063E-1,0E0,0E0,1.59902E0,5.531244E-1,4.80659E-2,6.1794794E-1,2.0441346E-2,0E0,0E0,0E0,0E0,0E0,0E0,0E0,0E0,0E0,0E0,0E0,0E0,0E0,0E0,0E0,0E0,0E0,0E0],"parents":[2147483647,0,0,2,2,3,3,4,4,5,5,6,6,7,7,9,9,10,10,11,11,12,12,14,14,15,15,18,18,19,19,22,22,23,23,24,24,25,25,26,26,27,27,30,30,31,31,32,32,33,33,34,34],"right_children":[2,-1,4,6,8,10,12,14,-1,16,18,20,22,-1,24,26,-1,-1,28,30,-1,-1,32,34,36,38,40,42,-1,-1,44,46,48,50,52,-1,-1,-1,-1,-1,-1,-1,-1,-1,-1,-1,-1,-1,-1,-1,-1,-1,-1],"split_conditions":[5E-1,2.6537985E-1,5E-1,6.5E0,4.5E0,5E-1,5E-1,5E-1,2.506856E-1,5E-1,5E-1,5E-1,5E-1,2.0759955E-1,5E-1,5E-1,2.4099632E-1,3.9070305E-1,5E-1,5E-1,4.268728E-1,4.3045783E-1,5E-1,2.5E0,2.5E0,5E-1,5E-1,5E-1,-1.5727675E-1,3.0027732E-1,5E-1,5E-1,7.5E0,1.5E0,3.5E0,-5.4977745E-2,2.1315682E-1,-3.6616673E-4,-6.143856E-2,-6.7297935E-2,3.848585E-1,1.9161713E-1,-1.0854362E-4,-1.0193459E-1,1.7449984E-1,1.0665009E-1,-1.0892182E-1,9.42749E-2,2.958633E-1,-5.7749767E-2,2.396928E-1,1.041201E-2,-2.1348983E-2],"split_indices":[2,0,7,3,3,4,10,11,0,0,9,13,11,0,10,8,0,0,6,9,0,0,8,3,3,6,6,10,0,0,6,15,3,3,3,0,0,0,0,0,0,0,0,0,0,0,0,0,0,0,0,0,0],"split_type":[0,0,0,0,0,0,0,0,0,0,0,0,0,0,0,0,0,0,0,0,0,0,0,0,0,0,0,0,0,0,0,0,0,0,0,0,0,0,0,0,0,0,0,0,0,0,0,0,0,0,0,0,0],"sum_hessian":[9.400727E2,1.9649501E0,9.381078E2,9.1833636E2,1.9771412E1,8.472823E2,7.105409E1,1.814143E1,1.6299803E0,8.318393E2,1.5442962E1,4.3650974E1,2.7403118E1,1.0132678E0,1.7128162E1,8.3066583E2,1.1734546E0,1.1199958E0,1.4322966E1,4.2468777E1,1.1821971E0,1.3423029E0,2.6060816E1,1.4485048E1,2.6431153E0,7.528732E2,7.779263E1,1.2513665E1,1.809301E0,2.1208332E0,4.0347942E1,2.1831215E1,4.229601E0,2.887132E0,1.1597916E1,1.5847139E0,1.0584013E0,6.9986444E2,5.3008793E1,7.301044E1,4.782197E0,4.564213E0,7.9494524E0,3.7585373E1,2.7625709E0,2.0540827E1,1.2903873E0,1.57977E0,2.649831E0,1.5455174E0,1.3416145E0,7.239119E0,4.358797E0],"tree_param":{"num_deleted":"0","num_feature":"16","num_nodes":"53","size_leaf_vector":"0"}},{"base_weights":[6.181697E-3,6.0170823E-1,4.571983E-3,5.965351E-3,-5.869816E-1,3.7364098E-3,9.45769E-1,-8.7946195E-5,1.7785424E-1,-6.5421173E-3,8.003952E-2,1.2119636E-1,5.652923E-1,-9.856847E-3,1.6841044E-1,4.0227324E-2,1.007489E0,2.3041597E-1,9.83594E-2,-6.606892E-2,-3.1774899E-3,7.361377E-1,7.4632876E-2,1.1212874E-1,-3.9543998E-1,2.3554405E-2,4.1140756E-1],"categories":[],"categories_nodes":[],"categories_segments":[],"categories_sizes":[],"default_left":[true,false,true,true,false,true,false,true,true,true,true,true,false,true,true,true,false,false,true,false,false,false,false,false,false,false,false],"id":17,"left_children":[1,-1,3,5,-1,7,-1,9,11,13,15,17,-1,19,21,23,-1,-1,25,-1,-1,-1,-1,-1,-1,-1,-1],"loss_changes":[8.916842E-1,0E0,7.7131677E-1,1.9452928E0,0E0,6.187151E-1,0E0,4.7122085E-1,3.6984867E-1,4.9067265E-1,2.467452E0,2.3965657E-2,0E0,3.1086153E-1,7.8277385E-1,2.1170917E0,0E0,0E0,3.9324677E-1,0E0,0E0,0E0,0E0,0E0,0E0,0E0,0E0],"parents":[2147483647,0,0,2,2,3,3,5,5,7,7,8,8,9,9,10,10,11,11,13,13,14,14,15,15,18,18],"right_children":[2,-1,4,6,-1,8,-1,10,12,14,16,18,-1,20,22,24,-1,-1,26,-1,-1,-1,-1,-1,-1,-1,-1],"split_conditions":[5E-1,2.406833E-1,1.35E1,1.05E1,-2.3479263E-1,5E-1,3.783076E-1,6.5E0,4.5E0,5E-1,5E-1,5E-1,2.2611693E-1,1.5E0,5E-1,9.5E0,4.029956E-1,9.216639E-2,5E-1,-2.6427567E-2,-1.2709959E-3,2.9445508E-1,2.985315E-2,4.4851497E-2,-1.5817599E-1,9.421762E-3,1.6456303E-1],"split_indices":[2,0,3,3,0,7,0,3,3,4,13,9,0,3,11,3,0,0,10,0,0,0,0,0,0,0,0],"split_type":[0,0,0,0,0,0,0,0,0,0,0,0,0,0,0,0,0,0,0,0,0,0,0,0,0,0,0],"sum_hessian":[9.3203754E2,1.5075538E0,9.3052997E2,9.2933093E2,1.1990657E0,9.281336E2,1.1972877E0,9.0916406E2,1.8969553E1,8.4224097E2,6.692314E1,1.7694738E1,1.2748148E0,8.275063E2,1.4734649E1,6.516903E1,1.7541071E0,1.4881133E0,1.6206625E1,8.6940636E1,7.405657E2,1.1177837E0,1.3616865E1,5.6574715E1,8.594318E0,1.3948724E1,2.2579005E0],"tree_param":{"num_deleted":"0","num_feature":"16","num_nodes":"27","size_leaf_vector":"0"}},{"base_weights":[5.420272E-3,5.428089E-1,4.148157E-3,5.2660783E-3,-5.122005E-1,3.4776437E-3,8.2464534E-1,2.701579E-1,1.5842486E-3,3.266287E-2,5.846679E-1,-9.160476E-4,1.213674E-1,3.05743E-1,-3.6368996E-1,3.850328E-3,-6.417485E-2,7.05938E-2,5.0856096E-1,-2.29944E-3,8.000377E-2,6.3992053E-1,-1.0709244E-1,1.6680723E-1,5.279808E-2],"categories":[],"categories_nodes":[],"categories_segments":[],"categories_sizes":[],"default_left":[true,false,true,true,false,true,false,true,true,true,false,true,true,false,false,true,true,true,false,false,false,false,false,false,false],"id":18,"left_children":[1,-1,3,5,-1,7,-1,9,11,13,-1,15,17,-1,-1,19,21,23,-1,-1,-1,-1,-1,-1,-1],"loss_changes":[6.326328E-1,0E0,5.380987E-1,1.3548458E0,0E0,4.668838E-1,0E0,4.6781304E-1,2.7563837E-1,6.2783355E-1,0E0,2.7226198E-1,3.3404624E-1,0E0,0E0,3.9352658E-1,1.9803963E0,2.1665767E-2,0E0,0E0,0E0,0E0,0E0,0E0,0E0],"parents":[2147483647,0,0,2,2,3,3,5,5,7,7,8,8,9,9,11,11,12,12,15,15,16,16,17,17],"right_children":[2,-1,4,6,-1,8,-1,10,12,14,-1,16,18,-1,-1,20,22,24,-1,-1,-1,-1,-1,-1,-1],"split_conditions":[5E-1,2.1712355E-1,1.35E1,1.05E1,-2.048802E-1,5E-1,3.2985815E-1,5E-1,5E-1,5E-1,2.3386717E-1,5E-1,4.5E0,1.22297205E-1,-1.4547598E-1,6.5E0,5E-1,5E-1,2.0342438E-1,-9.1977604E-4,3.2001507E-2,2.559682E-1,-4.2836975E-2,6.672289E-2,2.1119233E-2],"split_indices":[2,0,3,3,0,3,0,10,7,12,0,15,3,0,0,3,9,9,0,0,0,0,0,0,0],"split_type":[0,0,0,0,0,0,0,0,0,0,0,0,0,0,0,0,0,0,0,0,0,0,0,0,0],"sum_hessian":[9.277094E2,1.1855627E0,9.2652386E2,9.255099E2,1.0139759E0,9.244963E2,1.0136263E0,5.51868E0,9.189776E2,3.77325E0,1.74543E0,9.0115955E2,1.7818022E1,2.3693905E0,1.4038595E0,8.388906E2,6.2268948E1,1.679763E1,1.0203911E0,7.771053E2,6.1785305E1,2.778305E0,5.9490643E1,1.314933E0,1.54826975E1],"tree_param":{"num_deleted":"0","num_feature":"16","num_nodes":"25","size_leaf_vector":"0"}},{"base_weights":[4.488032E-3,2.397941E-1,2.8266269E-3,4.9372647E-2,4.9834615E-1,-2.8314877E-2,9.958011E-3,2.5467125E-1,-2.8058928E-1,3.9259505E-2,-2.0521578E-1,1.5244665E-2,-1.3996276E-1,-9.516551E-2,1.5723577E-1,-3.02766E-1,4.1523764E-1,2.8118386E-3,3.65073E-1,-2.3170945E-1,8.3199733E-1,-1.6152668E-1,4.0584296E-1,-5.3536177E-2,1.8990597E-1,-3.3412653E-1,1.6223387E-1,1.5691456E-1,9.2391497E-1,4.4700578E-2,-1.9876897E-2,6.4205647E-1,1.8231073E-1,-3.1393045E-1,4.9280873E-1,-1.2215181E-1,-4.3444252E-1,5.5484706E-1,2.1499893E-1,-1.7192051E-1,1.526137E-1,2.2679919E-1,-2.688277E-1,-2.5690854E-1,-4.8574764E-1,8.539221E-1,-5.7565725E-1,-5.0994117E-2,3.498507E-1,-6.9456495E-2,9.4328396E-2,-4.209283E-3,-2.2415824E-1,-2.2825652E-1,-9.011752E-1,-7.811083E-2,-4.1958067E-1,5.4148144E-1,9.416239E-2,-1.065765E0,1.0227085E0,-1.2911809E-2,-5.8414394E-1,1.13287024E-1,-3.7431353E-1,-6.845136E-2,3.4199677E-2,1.3645629E0,-3.3348885E-1,-2.5536746E-1,7.992978E-2],"categories":[],"categories_nodes":[],"categories_segments":[],"categories_sizes":[],"default_left":[true,true,true,true,false,true,true,false,false,true,true,true,true,true,true,true,true,true,true,true,false,true,true,true,true,true,true,true,false,true,true,false,false,true,false,true,false,false,false,false,false,true,true,false,false,false,false,false,false,true,true,true,true,true,false,false,false,false,false,false,false,false,false,false,false,false,false,false,false,false,false],"id":19,"left_children":[1,3,5,7,-1,9,11,-1,-1,13,15,17,19,21,23,25,27,29,31,33,-1,35,37,39,41,43,45,47,-1,49,51,-1,-1,53,-1,55,-1,-1,-1,-1,-1,57,59,-1,-1,-1,-1,-1,-1,61,63,65,67,69,-1,-1,-1,-1,-1,-1,-1,-1,-1,-1,-1,-1,-1,-1,-1,-1,-1],"loss_changes":[3.6132973E-1,2.944469E-1,2.0471188E-1,3.9944634E-1,0E0,2.0615065E0,5.963585E-1,0E0,0E0,1.9995257E0,3.009239E0,3.152691E0,2.4788146E0,2.0309649E0,4.7168994E-1,6.629901E-1,7.6096976E-1,6.6733193E-1,1.142309E0,1.5967131E0,0E0,5.1556456E-1,8.542025E-2,2.6478928E-1,1.0467849E0,3.3692265E-1,2.1813557E0,2.495726E-1,0E0,1.4040629E0,1.457078E0,0E0,0E0,9.1878605E-1,0E0,5.91199E-1,0E0,0E0,0E0,0E0,0E0,2.2219002E0,6.0237966E0,0E0,0E0,0E0,0E0,0E0,0E0,2.1844928E0,1.5737537E0,1.0488336E0,6.0881553E0,1.9456792E-1,0E0,0E0,0E0,0E0,0E0,0E0,0E0,0E0,0E0,0E0,0E0,0E0,0E0,0E0,0E0,0E0,0E0],"parents":[2147483647,0,0,1,1,2,2,3,3,5,5,6,6,9,9,10,10,11,11,12,12,13,13,14,14,15,15,16,16,17,17,18,18,19,19,21,21,22,22,23,23,24,24,25,25,26,26,27,27,29,29,30,30,33,33,35,35,41,41,42,42,49,49,50,50,51,51,52,52,53,53],"right_children":[2,4,6,8,-1,10,12,-1,-1,14,16,18,20,22,24,26,28,30,32,34,-1,36,38,40,42,44,46,48,-1,50,52,-1,-1,54,-1,56,-1,-1,-1,-1,-1,58,60,-1,-1,-1,-1,-1,-1,62,64,66,68,70,-1,-1,-1,-1,-1,-1,-1,-1,-1,-1,-1,-1,-1,-1,-1,-1,-1],"split_conditions":[5E-1,5E-1,5E-1,5E-1,1.9933847E-1,5.5E0,7.5E0,1.018685E-1,-1.1223572E-1,2.5E0,7.5E0,6.5E0,5E-1,5E-1,5E-1,5E-1,5E-1,2.5E0,5E-1,5E-1,3.3279893E-1,5E-1,1.5E0,3.5E0,5E-1,6.5E0,5E-1,8.5E0,3.69566E-1,1.5E0,5E-1,2.568226E-1,7.292429E-2,5E-1,1.971235E-1,5E-1,-1.7377701E-1,2.2193883E-1,8.599957E-2,-6.87682E-2,6.104548E-2,3.5E0,3.5E0,-1.02763414E-1,-1.9429906E-1,3.4156886E-1,-2.302629E-1,-2.0397646E-2,1.3994029E-1,5E-1,5E-1,3.5E0,5E-1,1.05E1,-3.604701E-1,-3.1244332E-2,-1.6783227E-1,2.1659258E-1,3.7664957E-2,-4.26306E-1,4.0908343E-1,-5.1647234E-3,-2.3365758E-1,4.531481E-2,-1.4972542E-1,-2.7380545E-2,1.3679871E-2,5.458252E-1,-1.3339554E-1,-1.0214698E-1,3.1971913E-2],"split_indices":[3,10,11,12,0,3,3,0,0,3,3,3,13,6,9,6,10,3,10,8,0,10,3,3,6,3,15,3,0,3,6,0,0,4,0,13,0,0,0,0,0,3,3,0,0,0,0,0,0,12,1,3,9,3,0,0,0,0,0,0,0,0,0,0,0,0,0,0,0,0,0],"split_type":[0,0,0,0,0,0,0,0,0,0,0,0,0,0,0,0,0,0,0,0,0,0,0,0,0,0,0,0,0,0,0,0,0,0,0,0,0,0,0,0,0,0,0,0,0,0,0,0,0,0,0,0,0,0,0,0,0,0,0,0,0,0,0,0,0,0,0,0,0,0,0],"sum_hessian":[9.249957E2,5.480329E0,9.195154E2,3.841819E0,1.63851E0,1.7077974E2,7.4873566E2,2.5089552E0,1.3328638E0,1.2413824E2,4.66415E1,7.2410004E2,2.4635609E1,5.8114506E1,6.6023735E1,4.07471E1,5.8944E0,7.002223E2,2.3877716E1,2.3206657E1,1.4289511E0,5.191561E1,6.1988955E0,8.774747E0,5.7248985E1,3.8436325E1,2.3107765E0,4.7769723E0,1.117428E0,2.4567618E2,4.5454614E2,8.493067E0,1.5384648E1,2.1350437E1,1.8562217E0,4.6634945E1,5.280668E0,2.4099567E0,3.7889388E0,5.6793466E0,3.0953999E0,5.345548E1,3.7935076E0,2.725184E1,1.1184482E1,1.111565E0,1.1992114E0,2.6533775E0,2.1235948E0,7.432032E1,1.7135587E2,4.2311536E2,3.1430761E1,1.9844051E1,1.5063846E0,4.171999E1,4.914954E0,1.493636E1,3.851912E1,2.4540524E0,1.3394551E0,6.788717E1,6.4331465E0,1.6542209E2,5.9337854E0,1.580245E2,2.6509085E2,1.2844791E0,3.0146282E1,1.8397062E1,1.4469898E0],"tree_param":{"num_deleted":"0","num_feature":"16","num_nodes":"71","size_leaf_vector":"0"}},{"base_weights":[3.497028E-3,9.5971196E-4,2.1202841E-1,-4.303758E-3,7.891346E-2,7.342304E-1,5.449414E-2,-1.2943767E-4,-1.976772E-1,3.23273E-2,8.0406463E-1,-1.02224216E-1,4.2114675E-1,-5.4915785E-3,7.479144E-2,-3.3175305E-1,8.919477E-2,-8.7963976E-2,2.1107723E-1,1.7669333E-2,-4.001842E-2,-5.1958103E-2,9.439865E-1,1.6662213E-1,-4.48905E-1,7.8537756E-1,-4.2292637E-1,-1.6245632E-1,7.765368E-1,8.033088E-1,-8.718114E-2,8.908465E-2,-1.0321114E-2,-9.538901E-3,-1.9589643E-1,1.3267012E0,-1.3958779E-1,-2.1304388E-1,-7.064473E-1,-7.0909977E-1,7.092566E-2,-3.0707303E-1,2.4304658E-2,1.2803158E0,-7.3587424E-1,-6.039725E-1,1.11102335E-1,-7.488571E-2,1.6644076E-1,-1.5905121E-1,1.1778596E-2,-4.5287948E-2,2.0046633E-1,-4.6744317E-1,1.3562399E-1,-2.2295819E-1,7.584536E-1,-4.2421955E-1,-1.8870195E-2,-2.888558E-1,-8.3652824E-1,-7.576815E-2,-3.4458825E-1,-5.6433564E-1,3.0126897E-1,1.5070489E-1,1.5383366E0,5.030561E-1,-4.526947E-1],"categories":[],"categories_nodes":[],"categories_segments":[],"categories_sizes":[],"default_left":[true,true,true,true,true,false,true,true,true,true,false,false,false,true,true,true,true,true,true,true,true,true,false,false,true,false,true,true,false,true,true,true,true,true,true,false,true,true,true,false,false,true,true,true,false,false,true,false,false,false,false,false,false,false,false,false,false,false,false,false,false,false,false,false,false,false,false,false,false],"id":20,"left_children":[1,3,5,7,9,-1,11,13,15,17,-1,-1,-1,19,21,23,25,27,29,31,33,35,-1,-1,37,-1,39,41,-1,43,45,47,49,51,53,-1,55,57,59,-1,-1,61,63,65,-1,-1,67,-1,-1,-1,-1,-1,-1,-1,-1,-1,-1,-1,-1,-1,-1,-1,-1,-1,-1,-1,-1,-1,-1],"loss_changes":[4.8628175E-1,3.734698E-1,8.688745E-1,6.8837434E-1,1.9188561E0,0E0,5.928368E-1,3.3618256E-1,7.22689E-1,1.2041303E0,0E0,0E0,0E0,6.251796E-1,6.206672E0,8.0417335E-1,2.659466E0,2.294054E0,4.039699E0,9.365822E-1,1.4891733E0,6.1927457E0,0E0,0E0,4.8035097E-1,0E0,6.73688E-1,8.668852E-1,0E0,6.5405083E0,1.6911021E0,1.6855502E0,1.1101272E0,1.9877106E0,4.6795435E0,0E0,3.7373872E0,2.7298748E-1,4.586458E-3,0E0,0E0,1.301446E-1,2.5850625E0,1.5711784E0,0E0,0E0,2.9454565E0,0E0,0E0,0E0,0E0,0E0,0E0,0E0,0E0,0E0,0E0,0E0,0E0,0E0,0E0,0E0,0E0,0E0,0E0,0E0,0E0,0E0,0E0],"parents":[2147483647,0,0,1,1,2,2,3,3,4,4,6,6,7,7,8,8,9,9,13,13,14,14,15,15,16,16,17,17,18,18,19,19,20,20,21,21,24,24,26,26,27,27,29,29,30,30,31,31,32,32,33,33,34,34,36,36,37,37,38,38,41,41,42,42,43,43,46,46],"right_children":[2,4,6,8,10,-1,12,14,16,18,-1,-1,-1,20,22,24,26,28,30,32,34,36,-1,-1,38,-1,40,42,-1,44,46,48,50,52,54,-1,56,58,60,-1,-1,62,64,66,-1,-1,68,-1,-1,-1,-1,-1,-1,-1,-1,-1,-1,-1,-1,-1,-1,-1,-1,-1,-1,-1,-1,-1,-1],"split_conditions":[5E-1,5E-1,5E-1,5E-1,5.5E0,2.9369217E-1,2.5E0,5E-1,5.5E0,5E-1,3.2162586E-1,-4.0889688E-2,1.684587E-1,5E-1,4.5E0,1.5E0,6.5E0,4.5E0,5E-1,2.5E0,5.5E0,5E-1,3.775946E-1,6.6648856E-2,5E-1,3.1415102E-1,5E-1,2.5E0,3.1061473E-1,5E-1,1.5E0,5E-1,5E-1,4.5E0,6.5E0,5.306805E-1,5E-1,2.5E0,3.5E0,-2.836399E-1,2.8370265E-2,1.5E0,5E-1,5E-1,-2.943497E-1,-2.41589E-1,3.5E0,-2.9954284E-2,6.65763E-2,-6.3620485E-2,4.7114384E-3,-1.811518E-2,8.018654E-2,-1.8697727E-1,5.4249596E-2,-8.918328E-2,3.0338144E-1,-1.6968782E-1,-7.5480784E-3,-1.15542315E-1,-3.346113E-1,-3.0307261E-2,-1.3783531E-1,-2.2573426E-1,1.2050759E-1,6.028196E-2,6.153347E-1,2.0122245E-1,-1.8107788E-1],"split_indices":[1,12,11,15,3,0,3,6,3,10,0,0,0,10,3,3,3,3,8,3,3,9,0,0,10,0,10,3,0,6,3,11,9,3,3,0,8,3,3,0,0,3,9,13,0,0,3,0,0,0,0,0,0,0,0,0,0,0,0,0,0,0,0,0,0,0,0,0,0],"split_type":[0,0,0,0,0,0,0,0,0,0,0,0,0,0,0,0,0,0,0,0,0,0,0,0,0,0,0,0,0,0,0,0,0,0,0,0,0,0,0,0,0,0,0,0,0,0,0,0,0,0,0,0,0,0,0,0,0,0,0,0,0,0,0,0,0,0,0,0,0],"sum_hessian":[9.1844055E2,9.083923E2,1.00483055E1,8.5182166E2,5.657057E1,1.4803631E0,8.567943E0,8.3480164E2,1.7020056E1,5.4137196E1,2.4333758E0,6.507596E0,2.0603464E0,7.799096E2,5.4891987E1,1.1492388E1,5.5276675E0,3.2663746E1,2.1473452E1,4.670779E2,3.1283173E2,4.872669E1,6.1653004E0,2.1069508E0,9.385437E0,2.1166685E0,3.410999E0,3.0820116E1,1.8436282E0,6.625101E0,1.484835E1,1.3090413E2,3.3617377E2,2.6255447E2,5.027725E1,2.0670092E0,4.665968E1,5.852682E0,3.5327547E0,1.8836322E0,1.5273669E0,1.7006826E1,1.3813291E1,5.1860743E0,1.4390271E0,3.549969E0,1.1298381E1,4.1970963E1,8.8933174E1,4.268805E1,2.9348572E2,2.2503183E2,3.7522663E1,2.741322E1,2.2864029E1,4.338383E1,3.2758453E0,2.2360737E0,3.6166086E0,1.6040255E0,1.9287292E0,2.7947984E0,1.4212028E1,4.087798E0,9.7254925E0,1.2588652E0,3.9272087E0,6.7284636E0,4.569917E0],"tree_param":{"num_deleted":"0","num_feature":"16","num_nodes":"69","size_leaf_vector":"0"}},{"base_weights":[3.571745E-3,1.508118E-3,1.805569E-1,2.3211944E-3,-3.5416797E-1,6.470324E-1,4.9998377E-2,-1.2340316E-3,5.7872895E-2,-6.712299E-2,3.4626725E-1,2.1654961E-3,-1.6775763E-1,2.1332936E-2,7.1443695E-1,-2.6004894E-3,7.2656296E-2,-4.348917E-1,-6.747571E-2,-2.1406439E-1,6.0439005E-2,-4.3513447E-2,6.8441494E-3,-1.6440783E-2,7.6486754E-1,-8.93911E-2,-6.447022E-1,1.7884427E-1,-3.7422925E-1,-7.4734056E-1,1.2106097E-2,-5.4402303E-2,2.539026E-1,-5.8370516E-2,7.836806E-1,1.1339451E-2,-1.8947472E-1,1.0589502E0,-8.3203115E-2,-1.057345E-1,9.8180765E-1,3.8816938E-1,-6.210771E-1,4.3811554E-1,-4.4973952E-1,-1.17898606E-1,6.8945754E-1,8.88057E-1,-2.4448754E-2],"categories":[],"categories_nodes":[],"categories_segments":[],"categories_sizes":[],"default_left":[true,true,true,true,false,false,true,true,true,false,false,true,true,true,false,true,true,true,true,true,true,true,true,true,false,false,false,true,true,false,true,true,true,false,false,false,false,false,false,false,false,false,false,false,false,false,false,false,false],"id":21,"left_children":[1,3,5,7,-1,-1,9,11,13,-1,-1,15,17,19,-1,21,23,25,27,29,31,33,35,37,-1,-1,-1,39,41,-1,43,45,47,-1,-1,-1,-1,-1,-1,-1,-1,-1,-1,-1,-1,-1,-1,-1,-1],"loss_changes":[3.3184415E-1,2.610542E-1,6.054238E-1,1.7758355E-1,0E0,0E0,3.4476057E-1,4.791255E-1,1.2822523E0,0E0,0E0,2.789621E-1,4.242527E-1,4.9403805E-1,0E0,3.0100098E-1,3.2556758E0,2.640679E-1,1.0865705E0,9.335991E-1,1.0268676E0,1.8411255E0,5.608781E-1,3.5032103E0,0E0,0E0,0E0,1.9686912E0,1.433002E0,0E0,1.4496964E0,1.471615E0,3.0509276E0,0E0,0E0,0E0,0E0,0E0,0E0,0E0,0E0,0E0,0E0,0E0,0E0,0E0,0E0,0E0,0E0],"parents":[2147483647,0,0,1,1,2,2,3,3,6,6,7,7,8,8,11,11,12,12,13,13,15,15,16,16,17,17,18,18,19,19,20,20,21,21,22,22,23,23,27,27,28,28,30,30,31,31,32,32],"right_children":[2,4,6,8,-1,-1,10,12,14,-1,-1,16,18,20,-1,22,24,26,28,30,32,34,36,38,-1,-1,-1,40,42,-1,44,46,48,-1,-1,-1,-1,-1,-1,-1,-1,-1,-1,-1,-1,-1,-1,-1,-1],"split_conditions":[5E-1,1.15E1,5E-1,5E-1,-1.4166719E-1,2.5881296E-1,2.5E0,5E-1,5.5E0,-2.6849195E-2,1.385069E-1,5E-1,5E-1,1.5E0,2.857748E-1,5E-1,4.5E0,5E-1,5E-1,5E-1,5E-1,8.5E0,5E-1,5E-1,3.0594704E-1,-3.575644E-2,-2.578809E-1,5.5E0,2.5E0,-2.9893622E-1,5E-1,4.5E0,2.5E0,-2.3348207E-2,3.1347224E-1,4.5357808E-3,-7.578989E-2,4.2358008E-1,-3.3281248E-2,-4.22938E-2,3.9272305E-1,1.5526776E-1,-2.4843085E-1,1.7524622E-1,-1.798958E-1,-4.7159445E-2,2.7578303E-1,3.552228E-1,-9.779502E-3],"split_indices":[1,3,11,12,0,0,3,15,3,0,0,6,11,3,0,11,3,6,10,13,10,3,4,9,0,0,0,3,3,0,8,3,3,0,0,0,0,0,0,0,0,0,0,0,0,0,0,0,0],"split_type":[0,0,0,0,0,0,0,0,0,0,0,0,0,0,0,0,0,0,0,0,0,0,0,0,0,0,0,0,0,0,0,0,0,0,0,0,0,0,0,0,0,0,0,0,0,0,0,0,0],"sum_hessian":[9.083317E2,8.988597E2,9.472082E0,8.978008E2,1.0589012E0,1.206275E0,8.265807E0,8.4471783E2,5.3082897E1,6.478255E0,1.7875524E0,8.2878546E2,1.5932403E1,5.1262466E1,1.8204337E0,7.7720087E2,5.158457E1,3.4378529E0,1.249455E1,6.6655464E0,4.459692E1,1.450886E2,6.321123E2,4.656701E1,5.017564E0,1.8377073E0,1.6001457E0,7.1611753E0,5.333374E0,1.2988137E0,5.3667326E0,2.8435947E1,1.6160973E1,1.434417E2,1.646892E0,6.1888336E2,1.3228928E1,1.8532838E0,4.4713726E1,5.9284053E0,1.2327703E0,1.1644435E0,4.1689305E0,2.8184016E0,2.5483313E0,2.6974861E1,1.4610852E0,4.2615876E0,1.18993845E1],"tree_param":{"num_deleted":"0","num_feature":"16","num_nodes":"49","size_leaf_vector":"0"}},{"base_weights":[4.224029E-3,2.5386587E-3,1.5401925E-1,4.0104585E-3,-1.2265358E-1,5.7116147E-2,3.6984497E-1,2.3765035E-3,2.5811473E-1,-2.5130385E-1,3.3900854E-1,-4.9465796E-4,4.802648E-2,2.923516E-1,9.538675E-2,-3.5529086E-1,2.4768904E-1,1.2649661E-3,-7.090504E-1,1.8873824E-2,6.375967E-1,2.248266E-1,1.8766059E-5,-1.8640564E-1,5.2149523E-2,-9.105704E-2,4.2141432E-1,1.6999309E-3,-9.191651E-2,-6.37744E-1,-5.966953E-4,-2.4576567E-2,1.800583E-1],"categories":[],"categories_nodes":[],"categories_segments":[],"categories_sizes":[],"default_left":[true,true,true,true,true,false,false,true,true,true,false,true,true,false,false,false,false,true,false,true,false,true,true,true,true,false,false,false,false,false,false,false,false],"id":22,"left_children":[1,3,5,7,9,-1,-1,11,13,15,-1,17,19,-1,-1,-1,-1,21,-1,23,-1,25,27,29,31,-1,-1,-1,-1,-1,-1,-1,-1],"loss_changes":[2.2785488E-1,1.6541082E-1,1.8889785E-1,3.6708823E-1,7.047705E-1,0E0,0E0,1.15490206E-1,3.5859942E-3,5.411273E-1,0E0,1.0355136E0,8.841207E-1,0E0,0E0,0E0,0E0,2.3089203E-1,0E0,3.561363E-1,0E0,3.2366088E-1,1.2769341E-1,6.111939E-1,4.4037056E-1,0E0,0E0,0E0,0E0,0E0,0E0,0E0,0E0],"parents":[2147483647,0,0,1,1,2,2,3,3,4,4,7,7,8,8,9,9,11,11,12,12,17,17,19,19,21,21,22,22,23,23,24,24],"right_children":[2,4,6,8,10,-1,-1,12,14,16,-1,18,20,-1,-1,-1,-1,22,-1,24,-1,26,28,30,32,-1,-1,-1,-1,-1,-1,-1,-1],"split_conditions":[5E-1,9.5E0,2.5E0,8.5E0,5E-1,2.2846458E-2,1.47938E-1,5E-1,5E-1,1.05E1,1.3560341E-1,5E-1,5.5E0,1.1694064E-1,3.8154703E-2,-1.4211635E-1,9.9075615E-2,5E-1,-2.8362018E-1,1.5E0,2.550387E-1,5E-1,5E-1,5E-1,5E-1,-3.6422815E-2,1.6856574E-1,6.7997235E-4,-3.6766604E-2,-2.550976E-1,-2.3867811E-4,-9.830627E-3,7.2023325E-2],"split_indices":[1,3,3,3,10,0,0,12,10,3,0,13,3,0,0,0,0,3,0,3,0,11,15,13,10,0,0,0,0,0,0,0,0],"split_type":[0,0,0,0,0,0,0,0,0,0,0,0,0,0,0,0,0,0,0,0,0,0,0,0,0,0,0,0,0,0,0,0,0],"sum_hessian":[9.0308594E2,8.940439E2,9.042083E0,8.8461206E2,9.431815E0,7.11305E0,1.9290326E0,8.79963E2,4.649034E0,7.732635E0,1.6991806E0,8.2882324E2,5.1139786E1,3.1828225E0,1.4662117E0,6.6374216E0,1.0952132E0,8.2776575E2,1.057455E0,4.9713596E1,1.4261899E0,3.5940976E0,8.241717E2,6.2925677E0,4.342103E1,1.5846467E0,2.009451E0,8.103351E2,1.3836598E1,1.1257685E0,5.166799E0,2.7645645E1,1.5775383E1],"tree_param":{"num_deleted":"0","num_feature":"16","num_nodes":"33","size_leaf_vector":"0"}},{"base_weights":[2.8650488E-3,3.6405195E-3,-3.4030983E-1,1.8316705E-3,9.064933E-2,3.791067E-4,9.542805E-2,1.8658964E-1,7.185836E-2,2.364753E-3,-1.13806635E-1,6.195368E-3,3.2364702E-1,-5.173843E-4,3.8739318E-1,4.0018454E-4,1.04907066E-1,1.9857454E-1,-2.0849633E-1,2.0887998E-1,-1.0345182E-1,7.096344E-2,4.491415E-1,1.9016021E-1,-5.5987045E-2,5.436055E-3,-5.2005503E-2,6.6911745E-1,2.2601953E-2,-2.7463472E-1,2.1738818E-1,-1.5919437E-1,5.279588E-1,-1.4353272E-2,-1.09763734E-1,-3.0413873E-2,1.1082789E-2,9.1104126E-1,-1.20630376E-1,-1.9134188E-1,1.8581446E-1,-3.4879765E-1,-1.6676053E-1],"categories":[],"categories_nodes":[],"categories_segments":[],"categories_sizes":[],"default_left":[true,true,false,true,true,true,true,false,true,true,true,true,true,true,false,true,true,false,true,false,false,false,false,true,true,true,true,false,true,true,false,false,false,false,false,false,false,false,false,false,false,false,false],"id":23,"left_children":[1,3,-1,5,7,9,11,-1,13,15,17,19,21,23,-1,25,27,-1,29,-1,-1,-1,-1,31,33,35,37,-1,39,41,-1,-1,-1,-1,-1,-1,-1,-1,-1,-1,-1,-1,-1],"loss_changes":[2.4131352E-1,1.4165077E-1,0E0,1.2011339E-1,1.9638598E-2,1.9780874E-1,2.7295095E-1,0E0,3.8739595E-1,1.72669E-1,4.8248884E-1,2.5998136E-1,8.785561E-2,1.6707748E-1,0E0,2.2255166E-1,7.331093E-1,0E0,3.9576966E-1,0E0,0E0,0E0,0E0,5.0421596E-1,2.580567E-2,1.5606807E-1,4.995966E0,0E0,5.62696E-1,2.7990282E-2,0E0,0E0,0E0,0E0,0E0,0E0,0E0,0E0,0E0,0E0,0E0,0E0,0E0],"parents":[2147483647,0,0,1,1,3,3,4,4,5,5,6,6,8,8,9,9,10,10,11,11,12,12,13,13,15,15,16,16,18,18,23,23,24,24,25,25,26,26,28,28,29,29],"right_children":[2,4,-1,6,8,10,12,-1,14,16,18,20,22,24,-1,26,28,-1,30,-1,-1,-1,-1,32,34,36,38,-1,40,42,-1,-1,-1,-1,-1,-1,-1,-1,-1,-1,-1,-1,-1],"split_conditions":[1.15E1,5E-1,-1.3612394E-1,8.5E0,5E-1,7.5E0,5E-1,7.4635856E-2,5E-1,5E-1,5E-1,9.5E0,9.5E0,2.5E0,1.5495728E-1,5E-1,5E-1,7.942982E-2,5E-1,8.3551995E-2,-4.138073E-2,2.8385377E-2,1.7965661E-1,1.5E0,3.5E0,5E-1,5E-1,2.67647E-1,5E-1,5E-1,8.695527E-2,-6.367775E-2,2.1118353E-1,-5.741309E-3,-4.3905493E-2,-1.2165549E-2,4.4331155E-3,3.644165E-1,-4.825215E-2,-7.653675E-2,7.4325785E-2,-1.3951907E-1,-6.670421E-2],"split_indices":[3,7,0,3,9,3,10,0,10,4,11,3,3,3,0,8,11,0,8,0,0,0,0,3,3,9,9,0,10,10,0,0,0,0,0,0,0,0,0,0,0,0,0],"split_type":[0,0,0,0,0,0,0,0,0,0,0,0,0,0,0,0,0,0,0,0,0,0,0,0,0,0,0,0,0,0,0,0,0,0,0,0,0,0,0,0,0,0,0],"sum_hessian":[9.011221E2,9.000776E2,1.0445095E0,8.8274695E2,1.7330606E1,8.702453E2,1.2501674E1,1.3759124E0,1.5954695E1,8.5633325E2,1.3912017E1,9.725996E0,2.7756777E0,1.3789981E1,2.1647143E0,8.412206E2,1.5112717E1,2.9809058E0,1.0931111E1,3.0966918E0,6.629304E0,1.4405651E0,1.3351126E0,2.5603979E0,1.1229583E1,7.682889E2,7.2931656E1,1.0162811E0,1.4096436E1,9.76914E0,1.1619709E0,1.5185887E0,1.0418092E0,7.04346E0,4.186123E0,1.0394946E2,6.643394E2,4.0347233E0,6.8896935E1,6.0255785E0,8.070857E0,4.465653E0,5.303488E0],"tree_param":{"num_deleted":"0","num_feature":"16","num_nodes":"43","size_leaf_vector":"0"}},{"base_weights":[2.8600704E-3,1.5881899E-3,1.1766592E-1,1.1111618E-3,1.6680858E-1,3.9147425E-2,3.1011203E-1,2.2208807E-3,-1.22763656E-1,1.3931316E-3,1.3486491E-1,-2.2757293E-1,2.910033E-1,8.05895E-3,-8.411741E-3,2.030656E-1,6.18695E-2,-3.3698701E-3,8.5206315E-2,-2.02587E-2,1.3241655E-1,1.4827222E-1,-8.3924085E-2,8.416388E-2,-3.1127991E-2,-2.165975E-1,5.2015924E-1,-2.2839708E-3,-1.2115538E-1,6.2072724E-1,-1.654094E-1],"categories":[],"categories_nodes":[],"categories_segments":[],"categories_sizes":[],"default_left":[true,true,true,true,false,false,false,true,true,true,true,false,false,true,true,false,true,true,true,true,true,false,false,false,false,false,false,false,false,false,false],"id":24,"left_children":[1,3,5,7,-1,-1,-1,9,11,13,15,-1,-1,17,19,-1,21,23,25,27,29,-1,-1,-1,-1,-1,-1,-1,-1,-1,-1],"loss_changes":[1.3135308E-1,7.011602E-2,1.3680407E-1,1.2267546E-1,0E0,0E0,0E0,9.6816584E-2,4.098479E-1,5.7518903E-2,1.4661618E-2,0E0,0E0,4.6211416E-1,5.970273E-1,0E0,6.3835345E-2,1.1134338E0,8.9893875E0,5.972357E-1,4.142088E0,0E0,0E0,0E0,0E0,0E0,0E0,0E0,0E0,0E0,0E0],"parents":[2147483647,0,0,1,1,2,2,3,3,7,7,8,8,9,9,10,10,13,13,14,14,16,16,17,17,18,18,19,19,20,20],"right_children":[2,4,6,8,-1,-1,-1,10,12,14,16,-1,-1,18,20,-1,22,24,26,28,30,-1,-1,-1,-1,-1,-1,-1,-1,-1,-1],"split_conditions":[5E-1,1.05E1,2.5E0,9.5E0,6.672343E-2,1.565897E-2,1.2404481E-1,8.5E0,5E-1,5E-1,5E-1,-9.1029175E-2,1.16401315E-1,5.5E0,5E-1,8.1226245E-2,5E-1,5E-1,5E-1,5.5E0,2.5E0,5.9308887E-2,-3.3569634E-2,3.3665553E-2,-1.2451197E-2,-8.6639E-2,2.080637E-1,-9.1358833E-4,-4.8462152E-2,2.482909E-1,-6.616376E-2],"split_indices":[1,3,3,3,0,0,0,3,10,10,11,0,0,3,6,0,10,11,11,3,3,0,0,0,0,0,0,0,0,0,0],"split_type":[0,0,0,0,0,0,0,0,0,0,0,0,0,0,0,0,0,0,0,0,0,0,0,0,0,0,0,0,0,0,0],"sum_hessian":[8.9983923E2,8.909823E2,8.856945E0,8.894211E2,1.5612315E0,7.145133E0,1.7118118E0,8.824974E2,6.923684E0,8.780286E2,4.4687295E0,5.883389E0,1.0402952E0,5.2278955E2,3.5523914E2,1.3890368E0,3.079693E0,4.5616788E2,6.662163E1,3.2846378E2,2.6775354E1,1.9230317E0,1.1566613E0,1.09339516E2,3.4682837E2,3.962723E1,2.6994402E1,2.7966428E2,4.879951E1,9.733033E0,1.704232E1],"tree_param":{"num_deleted":"0","num_feature":"16","num_nodes":"31","size_leaf_vector":"0"}},{"base_weights":[2.5406093E-3,3.2419306E-3,-3.1025252E-1,1.5918296E-3,8.3462484E-2,2.4389704E-4,9.32057E-2,5.5829633E-2,1.2476824E-1,1.9498714E-3,-9.734116E-2,3.4360036E-2,2.3304768E-1,1.1187072E-1,-2.2713946E-1,7.2553963E-4,1.16720475E-1,-2.9448545E-1,1.1416585E-1,9.917956E-2,-6.8029016E-3,6.18282E-2,3.1653887E-1,2.4915802E-1,3.545299E-2,3.7464472E-3,-4.359226E-2,-2.380321E-2,5.7614076E-1,-4.0070258E-2,-4.0800908E-1,7.029574E-2,1.9968279E-1,-3.328972E-2,5.182225E-1,1.3063322E-3,6.134996E-2,5.7204217E-1,-8.837706E-2],"categories":[],"categories_nodes":[],"categories_segments":[],"categories_sizes":[],"default_left":[true,true,false,true,true,true,true,true,false,true,true,true,true,true,false,true,true,true,true,false,false,false,false,true,false,true,true,false,false,false,false,false,false,false,false,false,false,false,false],"id":25,"left_children":[1,3,-1,5,7,9,11,13,-1,15,17,19,21,23,-1,25,27,29,31,-1,-1,-1,-1,33,-1,35,37,-1,-1,-1,-1,-1,-1,-1,-1,-1,-1,-1,-1],"loss_changes":[1.9734147E-1,1.182066E-1,0E0,1.0827647E-1,1.3578147E-2,1.4423937E-1,9.661419E-2,2.2512804E-1,0E0,1.19550675E-1,6.543475E-1,2.7679585E-2,3.17847E-2,1.0848215E-1,0E0,1.1307931E-1,5.934726E-1,2.1425217E-1,1.5609562E-2,0E0,0E0,0E0,0E0,3.0852592E-1,0E0,1.11033425E-1,1.5366708E0,0E0,0E0,0E0,0E0,0E0,0E0,0E0,0E0,0E0,0E0,0E0,0E0],"parents":[2147483647,0,0,1,1,3,3,4,4,5,5,6,6,7,7,9,9,10,10,11,11,12,12,13,13,15,15,16,16,17,17,18,18,23,23,25,25,26,26],"right_children":[2,4,-1,6,8,10,12,14,-1,16,18,20,22,24,-1,26,28,30,32,-1,-1,-1,-1,34,-1,36,38,-1,-1,-1,-1,-1,-1,-1,-1,-1,-1,-1,-1],"split_conditions":[1.15E1,5E-1,-1.24101005E-1,8.5E0,3.5E0,7.5E0,5E-1,5E-1,4.9907297E-2,5E-1,5E-1,9.5E0,9.5E0,2.5E0,-9.0855785E-2,5E-1,5E-1,5E-1,5E-1,3.9671823E-2,-2.7211607E-3,2.473128E-2,1.2661555E-1,1.5E0,1.4181197E-2,6.5E0,5E-1,-9.521284E-3,2.3045631E-1,-1.6028104E-2,-1.6320364E-1,2.8118297E-2,7.9873115E-2,-1.3315888E-2,2.0728901E-1,5.225329E-4,2.4539983E-2,2.2881687E-1,-3.5350826E-2],"split_indices":[3,7,0,3,3,3,10,10,0,1,10,3,3,3,0,15,10,11,8,0,0,0,0,3,0,3,9,0,0,0,0,0,0,0,0,0,0,0,0],"split_type":[0,0,0,0,0,0,0,0,0,0,0,0,0,0,0,0,0,0,0,0,0,0,0,0,0,0,0,0,0,0,0,0,0,0,0,0,0,0,0],"sum_hessian":[8.9400397E2,8.9299146E2,1.0125629E0,8.759925E2,1.6998932E1,8.642789E2,1.1713639E1,1.1594216E1,5.404716E0,8.503924E2,1.3886476E1,9.121154E0,2.592486E0,1.01823E1,1.4119166E0,8.424122E2,7.9802303E0,6.984215E0,6.902261E0,2.995183E0,6.125971E0,1.420314E0,1.1721718E0,2.8327265E0,7.349573E0,7.8951086E2,5.290127E1,6.837133E0,1.1430972E0,2.5723495E0,4.411865E0,5.76621E0,1.1360505E0,1.8094991E0,1.0232273E0,7.5840704E2,3.1103844E1,2.7890093E0,5.0112263E1],"tree_param":{"num_deleted":"0","num_feature":"16","num_nodes":"39","size_leaf_vector":"0"}},{"base_weights":[2.2586044E-3,-1.4833385E-3,6.3627996E-2,4.5463536E-4,-1.0639011E-1,3.80556E-2,6.0092086E-1,1.7211978E-1,-4.563672E-4,-3.807628E-1,-8.285253E-3,1.04688905E-1,-1.385388E-1,-9.152868E-2,3.548307E-1,-1.1460998E-2,1.2672921E-2,-1.138744E-1,-5.560574E-1,-1.7071927E-1,3.9288247E-1,1.5565546E-2,4.893301E-1,3.036051E-1,-2.224738E-1,7.036659E-2,-2.5464263E-2,1.7298218E-2,-3.5057592E-1,2.2500575E-1,-3.0346686E-1,7.557261E-1,-2.132326E-2,-2.9316971E-2,6.200149E-1,8.251399E-1,-6.2217766E-1,1.779002E-3,-3.6934158E-1,2.997686E-1,-2.1342771E-1,1.30247595E-2,-8.097185E-2,-6.988159E-2,2.7366472E-2,4.4935247E-1,-8.3670014E-1,-9.054655E-2,-5.373671E-1,-1.3249992E-1,9.118035E-2,5.6215428E-2,1.0026029E0,-3.8248104E-1,3.3662334E-1,-3.314764E-1,6.3475764E-1,-3.490436E-1,5.0469214E-1,3.6909364E-2,-1.7432243E-1,1.8160883E-1,-1.134454E-1,-2.3142979E-1,3.9017904E-1,7.164898E-2,-3.9252985E-2,-1.8448399E-1,-8.538607E-3,-1.3163204E-1,-7.026797E-1,-3.014796E-1,-9.782779E-2,-3.7322706E-1,2.7852017E-1],"categories":[],"categories_nodes":[],"categories_segments":[],"categories_sizes":[],"default_left":[true,true,true,true,true,true,false,true,true,true,true,true,true,false,false,true,true,false,false,true,true,true,true,false,true,true,true,true,true,false,true,false,false,true,false,true,false,true,false,true,true,true,true,true,true,false,false,true,true,true,true,false,false,false,false,false,false,false,false,false,false,false,false,false,false,false,false,false,false,false,false,false,false,false,false],"id":26,"left_children":[1,3,5,7,9,11,-1,13,15,17,19,21,23,-1,-1,25,27,-1,-1,29,31,33,35,-1,37,39,41,43,45,-1,47,-1,-1,49,-1,51,-1,53,-1,55,57,59,61,63,65,-1,-1,67,69,71,73,-1,-1,-1,-1,-1,-1,-1,-1,-1,-1,-1,-1,-1,-1,-1,-1,-1,-1,-1,-1,-1,-1,-1,-1],"loss_changes":[2.0535633E-1,1.7152683E-1,6.83246E-1,1.2974635E-1,4.0875787E-1,6.043208E-1,0E0,2.4344747E-1,1.1945426E-1,1.2420416E-1,8.6822885E-1,1.2594663E0,5.931233E-1,0E0,0E0,5.1714665E-1,6.3948977E-1,0E0,0E0,5.646155E-1,5.941818E-1,8.603168E-1,3.09645E0,0E0,4.1168475E-1,4.359882E0,8.230899E-1,3.2950723E-1,2.2375345E0,0E0,3.2489562E-1,0E0,0E0,3.8322717E-1,0E0,7.2751856E-1,0E0,8.922597E-1,0E0,8.014528E0,3.1056437E0,1.0270213E0,1.3652248E0,2.9830348E0,9.9197316E-1,0E0,0E0,3.793744E-2,1.3365036E-1,6.7111045E-2,1.3535208E0,0E0,0E0,0E0,0E0,0E0,0E0,0E0,0E0,0E0,0E0,0E0,0E0,0E0,0E0,0E0,0E0,0E0,0E0,0E0,0E0,0E0,0E0,0E0,0E0],"parents":[2147483647,0,0,1,1,2,2,3,3,4,4,5,5,7,7,8,8,9,9,10,10,11,11,12,12,15,15,16,16,19,19,20,20,21,21,22,22,24,24,25,25,26,26,27,27,28,28,30,30,33,33,35,35,37,37,39,39,40,40,41,41,42,42,43,43,44,44,47,47,48,48,49,49,50,50],"right_children":[2,4,6,8,10,12,-1,14,16,18,20,22,24,-1,-1,26,28,-1,-1,30,32,34,36,-1,38,40,42,44,46,-1,48,-1,-1,50,-1,52,-1,54,-1,56,58,60,62,64,66,-1,-1,68,70,72,74,-1,-1,-1,-1,-1,-1,-1,-1,-1,-1,-1,-1,-1,-1,-1,-1,-1,-1,-1,-1,-1,-1,-1,-1],"split_conditions":[5E-1,5E-1,5.5E0,5E-1,5E-1,5E-1,2.4036835E-1,5E-1,3.5E0,5E-1,5.5E0,5E-1,5E-1,-3.661147E-2,1.419323E-1,5E-1,5E-1,-4.554976E-2,-2.2242296E-1,1.5E0,5E-1,4.5E0,5E-1,1.2144204E-1,2.5E0,5E-1,2.5E0,5E-1,6E0,9.00023E-2,5E-1,3.0229044E-1,-8.5293045E-3,2.5E0,2.4800597E-1,5E-1,-2.4887107E-1,1.5E0,-1.4773664E-1,1.5E0,2.5E0,5E-1,5E-1,5E-1,5E-1,1.79741E-1,-3.3468005E-1,2.5E0,3.5E0,5E-1,5E-1,2.248617E-2,4.0104118E-1,-1.5299241E-1,1.3464934E-1,-1.3259056E-1,2.5390306E-1,-1.3961744E-1,2.0187686E-1,1.47637455E-2,-6.972897E-2,7.264353E-2,-4.537816E-2,-9.2571914E-2,1.5607162E-1,2.8659591E-2,-1.5701195E-2,-7.37936E-2,-3.4154428E-3,-5.2652817E-2,-2.8107187E-1,-1.2059184E-1,-3.9131116E-2,-1.4929083E-1,1.1140807E-1],"split_indices":[12,15,3,3,11,8,0,11,3,6,3,10,13,0,0,9,4,0,0,3,10,3,6,0,3,10,3,9,3,0,10,0,0,3,0,13,0,3,0,3,3,8,11,10,10,0,0,3,3,3,9,0,0,0,0,0,0,0,0,0,0,0,0,0,0,0,0,0,0,0,0,0,0,0,0],"split_type":[0,0,0,0,0,0,0,0,0,0,0,0,0,0,0,0,0,0,0,0,0,0,0,0,0,0,0,0,0,0,0,0,0,0,0,0,0,0,0,0,0,0,0,0,0,0,0,0,0,0,0,0,0,0,0,0,0,0,0,0,0,0,0,0,0,0,0,0,0,0,0,0,0,0,0],"sum_hessian":[8.9283936E2,8.424477E2,5.039165E1,8.2814484E2,1.4302899E1,4.912441E1,1.2672428E0,3.3795705E0,8.2476526E2,3.0083048E0,1.1294594E1,3.596219E1,1.3162219E1,1.5876595E0,1.791911E0,4.4875635E2,3.760089E2,1.8465401E0,1.1617646E0,8.4482975E0,2.8462968E0,3.0041815E1,5.9203763E0,1.6824487E0,1.1479771E1,6.4986275E1,3.8377005E2,3.7222174E2,3.787171E0,1.9475617E0,6.5007358E0,1.0777078E0,1.768589E0,2.885102E1,1.1907929E0,4.744579E0,1.1757977E0,4.9339685E0,6.5458026E0,3.590587E1,2.9080404E1,2.2707875E2,1.566913E2,3.7921684E1,3.3430005E2,1.4601326E0,2.3270383E0,4.129108E0,2.3716278E0,1.5488482E1,1.3362538E1,1.1366019E0,3.607977E0,2.2312124E0,2.702756E0,1.2452041E1,2.3453829E1,2.489329E1,4.187114E0,2.0211449E2,2.4964275E1,1.6739931E1,1.3995137E2,2.8434126E1,9.4875555E0,2.0077065E2,1.335294E2,1.3421415E0,2.7869663E0,1.2065623E0,1.1650654E0,1.3268296E0,1.41616535E1,3.555747E0,9.806791E0],"tree_param":{"num_deleted":"0","num_feature":"16","num_nodes":"75","size_leaf_vector":"0"}},{"base_weights":[1.3283036E-3,-3.1249722E-2,8.681183E-3,-5.212936E-2,2.3168325E-1,1.1823985E-2,-9.022958E-2,-6.481278E-2,2.696098E-1,4.6257537E-2,7.013441E-1,6.763384E-3,1.6488168E-1,-1.6671573E-1,7.157904E-1,-4.387612E-2,-3.1654498E-1,3.8686663E-1,-6.044439E-1,8.366112E-1,2.3994893E-1,1.0760968E-2,-5.5171292E-2,3.0438036E-1,8.795679E-2,-1.0281982E-1,-6.996246E-1,-1.8483806E-2,-2.9732642E-1,8.272471E-3,1.2860836E-1,-1.4939553E-1,7.147186E-1,-1.521028E-1,3.2245737E-1,8.261177E-3,-1.2008679E-1,-3.9242503E-1,8.768821E-2,1.3956551E-2,-4.0699437E-2,3.218836E-1,7.803195E-3,8.364316E-1,-2.1031058E-1,-1.7215525E-1,6.815996E-2,-7.473302E-2,7.774244E-2,-1.2608762E-1,-4.1405076E-1,-5.671687E-2,2.5972754E-2,5.375244E-1,-8.626191E-2,3.863572E-1,1.1328635E-1,-7.176492E-2,3.053606E-1,6.1520427E-2,-3.9017007E-1,-1.0009802E-1,-2.9180047E-1],"categories":[],"categories_nodes":[],"categories_segments":[],"categories_sizes":[],"default_left":[true,true,true,true,true,true,true,true,false,true,true,true,true,true,false,true,false,false,false,false,false,true,true,false,false,true,false,true,true,true,true,true,false,true,false,true,false,true,false,true,true,true,true,false,true,true,false,false,false,false,false,false,false,false,false,false,false,false,false,false,false,false,false],"id":27,"left_children":[1,3,5,7,9,11,13,15,-1,17,19,21,23,25,-1,27,-1,-1,-1,-1,-1,29,31,-1,-1,33,-1,35,37,39,41,43,-1,45,-1,47,-1,49,-1,51,53,55,57,-1,59,61,-1,-1,-1,-1,-1,-1,-1,-1,-1,-1,-1,-1,-1,-1,-1,-1,-1],"loss_changes":[2.1192442E-1,9.064918E-1,2.2539823E-1,6.367253E-1,1.0273509E0,5.413235E-1,1.4965593E0,7.598115E-1,0E0,2.404831E0,9.831667E-3,1.6869281E-1,2.1328813E-1,6.50436E-1,0E0,8.741933E-1,0E0,0E0,0E0,0E0,0E0,1.862182E-1,3.1048558E0,0E0,0E0,4.7064728E-1,0E0,3.4150052E-1,4.877361E-1,1.7495452E-1,3.0423242E-1,2.4368153E0,0E0,9.435511E-2,0E0,5.832264E-1,0E0,6.031871E-3,0E0,4.7879785E-1,1.769546E0,2.3856342E-2,2.3758636E-1,0E0,1.796677E0,1.2105042E-1,0E0,0E0,0E0,0E0,0E0,0E0,0E0,0E0,0E0,0E0,0E0,0E0,0E0,0E0,0E0,0E0,0E0],"parents":[2147483647,0,0,1,1,2,2,3,3,4,4,5,5,6,6,7,7,9,9,10,10,11,11,12,12,13,13,15,15,21,21,22,22,25,25,27,27,28,28,29,29,30,30,31,31,33,33,35,35,37,37,39,39,40,40,41,41,42,42,44,44,45,45],"right_children":[2,4,6,8,10,12,14,16,-1,18,20,22,24,26,-1,28,-1,-1,-1,-1,-1,30,32,-1,-1,34,-1,36,38,40,42,44,-1,46,-1,48,-1,50,-1,52,54,56,58,-1,60,62,-1,-1,-1,-1,-1,-1,-1,-1,-1,-1,-1,-1,-1,-1,-1,-1,-1],"split_conditions":[5E-1,5E-1,7.5E0,7.5E0,3.5E0,6.5E0,5E-1,6.5E0,1.0784393E-1,2.5E0,5.5E0,5E-1,5E-1,5E-1,2.8631616E-1,5E-1,-1.26618E-1,1.5474665E-1,-2.4177757E-1,3.346445E-1,9.597957E-2,5E-1,5E-1,1.2175214E-1,3.518272E-2,5E-1,-2.7984986E-1,5.5E0,3.5E0,5E-1,5E-1,5E-1,2.8588745E-1,1.05E1,1.2898295E-1,2.5E0,-4.8034716E-2,1.5E0,3.5075285E-2,5E-1,5E-1,2.5E0,1.5E0,3.3457264E-1,2.5E0,9.5E0,2.7263984E-2,-2.9893208E-2,3.1096978E-2,-5.0435048E-2,-1.6562031E-1,-2.2686748E-2,1.0389102E-2,2.1500976E-1,-3.4504768E-2,1.5454288E-1,4.5314543E-2,-2.870597E-2,1.2214424E-1,2.460817E-2,-1.5606803E-1,-4.0039208E-2,-1.1672019E-1],"split_indices":[11,6,3,3,3,3,13,3,0,3,3,6,10,4,0,10,0,0,0,0,0,4,8,0,0,8,0,3,3,8,10,9,0,3,0,3,0,3,0,9,9,3,3,0,3,3,0,0,0,0,0,0,0,0,0,0,0,0,0,0,0,0,0],"split_type":[0,0,0,0,0,0,0,0,0,0,0,0,0,0,0,0,0,0,0,0,0,0,0,0,0,0,0,0,0,0,0,0,0,0,0,0,0,0,0,0,0,0,0,0,0,0,0,0,0,0,0,0,0,0,0,0,0,0,0,0,0,0,0],"sum_hessian":[8.825732E2,1.6191861E2,7.206546E2,1.5074928E2,1.1169336E1,6.9931494E2,2.1339659E1,1.4580019E2,4.9490957E0,8.795354E0,2.3739822E0,6.7794403E2,2.1370916E1,2.0214586E1,1.1250733E0,1.3568916E2,1.011102E1,6.0394645E0,2.75589E0,1.2069271E0,1.1670552E0,6.376153E2,4.0328728E1,6.5450344E0,1.4825881E1,1.9115566E1,1.0990202E0,1.2430809E2,1.1381072E1,6.254777E2,1.2137556E1,3.6649296E1,3.6794317E0,1.7706055E1,1.4095104E0,9.913219E1,2.5175903E1,9.111327E0,2.269745E0,5.610703E2,6.44074E1,4.028271E0,8.109285E0,1.391916E0,3.525738E1,1.6428806E1,1.2772481E0,4.5138924E1,5.3993263E1,1.1972103E0,7.914117E0,8.099243E1,4.8007788E2,3.9157617E0,6.049164E1,2.4262068E0,1.6020646E0,6.997061E0,1.1122241E0,1.4301194E1,2.0956186E1,1.1399811E1,5.0289955E0],"tree_param":{"num_deleted":"0","num_feature":"16","num_nodes":"63","size_leaf_vector":"0"}},{"base_weights":[1.9863702E-3,-1.0843208E-3,5.3818174E-2,-6.299419E-3,6.7677505E-2,3.262155E-2,5.329722E-1,-2.858342E-3,-1.912286E-1,6.2034386E-1,2.3388382E-2,-1.7799072E-1,6.71338E-2,-2.305971E-4,-1.2672645E-1,3.0129214E-3,-3.3649585E-1,6.254503E-1,-1.771404E-2,-5.8330613E-1,2.5316959E-3,2.473286E-1,1.9642826E-2,-2.4355762E-3,1.4483762E-1,-8.923675E-3,-6.275299E-1,-5.7444878E-2,1.4729907E-1,-1.6621377E-1,-5.367238E-1,-6.1458908E-2,5.306214E-1,3.5107547E-1,-2.478268E-1,8.667751E-1,-2.3646693E-1,-3.1030494E-1,7.478063E-2,-3.448789E-2,5.785724E-3,6.0443074E-1,3.3316813E-2,-7.210215E-2,3.3460894E-1,-2.3243426E-1,3.2323486E-1,-6.846601E-1,2.2477487E-1,-1.2229311E-1,1.1286266E-1,-1.8497093E-2,-3.1835738E-1,-3.0540696E-1,-4.554731E-3,1.0878285E-2,2.5295293E-1,-5.893993E-2,2.7175748E-1,8.856664E-3,-2.4074061E-1,1.3836806E-1,-1.841144E-2,-2.19643E-2,-2.6564038E-1,-6.86563E-2,-3.085736E-1,-2.1486203E-1,5.102525E-1,-1.7878579E-1,-4.5465715E-2,7.721775E-2,2.5316083E-1,-1.2487661E-1,3.0116907E-1,1.0986234E0,-2.4044879E-1],"categories":[],"categories_nodes":[],"categories_segments":[],"categories_sizes":[],"default_left":[true,true,true,true,true,true,false,true,true,false,true,true,true,true,true,true,true,false,true,false,true,true,true,true,true,true,false,true,false,true,false,true,false,false,true,false,true,false,true,true,true,false,true,true,false,true,false,false,true,true,true,false,false,false,false,true,true,false,false,false,false,false,false,false,false,false,false,false,false,false,false,false,false,false,false,false,false],"id":28,"left_children":[1,3,5,7,9,11,-1,13,15,-1,17,19,21,23,25,27,29,-1,31,-1,33,35,37,39,41,43,-1,45,-1,47,-1,49,-1,-1,51,-1,53,-1,55,57,59,-1,61,63,-1,65,-1,-1,67,69,71,-1,-1,-1,-1,73,75,-1,-1,-1,-1,-1,-1,-1,-1,-1,-1,-1,-1,-1,-1,-1,-1,-1,-1,-1,-1],"loss_changes":[1.3971749E-1,2.9784253E-1,4.8126554E-1,4.9061093E-1,1.418712E0,3.6144555E-1,0E0,2.4693736E-1,3.984297E-1,0E0,1.3782701E0,5.1684797E-1,3.5489357E-1,2.3833288E-1,9.2416906E-1,6.967631E-2,1.8583053E-1,0E0,1.2964847E0,0E0,5.9912694E-1,2.8068984E0,6.48239E-1,1.9357209E-1,5.516285E-1,3.2305533E-1,0E0,4.5248634E-1,0E0,1.331221E0,0E0,5.407876E-1,0E0,0E0,5.8837786E-2,0E0,8.910987E-2,0E0,3.4158438E-1,1.1388521E0,4.4492918E-1,0E0,5.708172E-2,1.15036204E-1,0E0,3.446184E-2,0E0,0E0,6.1967415E-1,1.538378E-1,4.7341913E-2,0E0,0E0,0E0,0E0,9.560015E-1,3.576567E0,0E0,0E0,0E0,0E0,0E0,0E0,0E0,0E0,0E0,0E0,0E0,0E0,0E0,0E0,0E0,0E0,0E0,0E0,0E0,0E0],"parents":[2147483647,0,0,1,1,2,2,3,3,4,4,5,5,7,7,8,8,10,10,11,11,12,12,13,13,14,14,15,15,16,16,18,18,20,20,21,21,22,22,23,23,24,24,25,25,27,27,29,29,31,31,34,34,36,36,38,38,39,39,40,40,42,42,43,43,45,45,48,48,49,49,50,50,55,55,56,56],"right_children":[2,4,6,8,10,12,-1,14,16,-1,18,20,22,24,26,28,30,-1,32,-1,34,36,38,40,42,44,-1,46,-1,48,-1,50,-1,-1,52,-1,54,-1,56,58,60,-1,62,64,-1,66,-1,-1,68,70,72,-1,-1,-1,-1,74,76,-1,-1,-1,-1,-1,-1,-1,-1,-1,-1,-1,-1,-1,-1,-1,-1,-1,-1,-1,-1],"split_conditions":[5E-1,5E-1,5.5E0,5E-1,1.5E0,1.5E0,2.1318889E-1,5E-1,3.5E0,2.4813755E-1,5E-1,5E-1,5E-1,8.5E0,6E0,2.5E0,5E-1,2.5018013E-1,5E-1,-2.3332246E-1,5E-1,3.5E0,5E-1,5E-1,5E-1,3.5E0,-2.5101197E-1,5E-1,5.8919627E-2,5E-1,-2.1468952E-1,3.5E0,2.1224856E-1,1.404302E-1,5E-1,3.4671006E-1,5E-1,-1.2412198E-1,3.5E0,5E-1,5E-1,2.417723E-1,9.5E0,5E-1,1.3384359E-1,1.5E0,1.2929395E-1,-2.7386403E-1,4.5E0,2.5E0,7.5E0,-7.3988372E-3,-1.2734295E-1,-1.2216278E-1,-1.8218923E-3,5E-1,5E-1,-2.3575973E-2,1.08702995E-1,3.5426659E-3,-9.629624E-2,5.5347223E-2,-7.364576E-3,-8.78572E-3,-1.0625615E-1,-2.7462522E-2,-1.2342944E-1,-8.594482E-2,2.04101E-1,-7.1514316E-2,-1.8186286E-2,3.08871E-2,1.01264335E-1,-4.9950644E-2,1.20467626E-1,4.3944937E-1,-9.6179515E-2],"split_indices":[12,8,3,15,3,3,0,4,3,0,9,13,13,3,3,3,10,0,6,0,10,3,11,11,11,3,0,10,0,11,0,3,0,0,8,0,10,0,3,6,1,0,3,6,0,3,0,0,3,3,3,0,0,0,0,10,10,0,0,0,0,0,0,0,0,0,0,0,0,0,0,0,0,0,0,0,0],"split_type":[0,0,0,0,0,0,0,0,0,0,0,0,0,0,0,0,0,0,0,0,0,0,0,0,0,0,0,0,0,0,0,0,0,0,0,0,0,0,0,0,0,0,0,0,0,0,0,0,0,0,0,0,0,0,0,0,0,0,0,0,0,0,0,0,0,0,0,0,0,0,0,0,0,0,0,0,0],"sum_hessian":[8.764794E2,8.283823E2,4.8097084E1,7.708288E2,5.7553516E1,4.7082355E1,1.0147285E0,7.577445E2,1.3084303E1,3.305004E0,5.4248512E1,6.04362E0,4.1038734E1,7.429846E2,1.4759854E1,6.0174446E0,7.066859E0,2.5582848E0,5.1690228E1,1.174771E0,4.8688493E0,7.682219E0,3.3356518E1,7.328291E2,1.0155499E1,1.277309E1,1.9867641E0,4.6647296E0,1.3527149E0,4.8080325E0,2.258826E0,4.8693497E1,2.9967318E0,1.8671508E0,3.0016985E0,3.0216792E0,4.66054E0,4.1134696E0,2.9243048E1,1.489447E2,5.838844E2,1.1199858E0,9.035514E0,1.1456298E1,1.316792E0,3.4625165E0,1.202213E0,1.7441761E0,3.0638564E0,3.6317863E1,1.2375633E1,1.0029309E0,1.9987676E0,3.3482928E0,1.3122472E0,2.2304491E1,6.9385567E0,1.3867944E2,1.0265265E1,5.776528E2,6.2316556E0,2.4285798E0,6.6069336E0,9.983476E0,1.4728228E0,1.7023758E0,1.7601409E0,1.3036257E0,1.7602308E0,2.016387E1,1.6153996E1,1.1104697E1,1.2709357E0,1.5585658E1,6.718833E0,2.104647E0,4.8339095E0],"tree_param":{"num_deleted":"0","num_feature":"16","num_nodes":"77","size_leaf_vector":"0"}},{"base_weights":[2.257306E-3,1.0473683E-3,1.1405194E-1,-9.870585E-4,3.6723692E-2,5.7165947E-2,2.4684589E-1,-4.496651E-3,4.6622343E-2,1.5828274E-3,2.7390864E-1,-2.0979967E-3,-1.4124803E-1,4.374932E-1,1.4708097E-2,4.558872E-2,-1.24697104E-1,4.2848086E-1,-1.9187939E-1,4.2233738E-4,-1.2447699E-1,3.575403E-2,-2.8514853E-1,4.7953826E-1,-1.6360244E-2,-3.4972947E-2,5.294048E-1,-3.338553E-2,-3.7853408E-1,6.844694E-1,4.2203877E-2,2.2229588E-2,-9.561961E-3,6.411172E-1,-2.243237E-1,1.09782696E-1,-2.176067E-2,-1.4711718E-1,-4.4336972E-1,-1.7529824E-1,8.508896E-2,-3.1161666E-1,-9.325187E-3,-1.3230492E-2,6.8625504E-1,-3.3558133E-1,1.05892435E-1,-4.4831354E-2,4.0485967E-2,-3.5931387E-3,-1.2724069E-1,-1.2233028E-1,-6.198344E-1,9.798776E-2,-1.8520422E-1,-6.126964E-1,1.6167143E-1,1.7854346E-2,6.434526E-1,3.45321E-1,-4.113552E-2,1.8510571E-1,2.2031963E-2],"categories":[],"categories_nodes":[],"categories_segments":[],"categories_sizes":[],"default_left":[true,true,true,true,true,false,false,true,true,true,true,true,true,false,true,true,true,true,false,true,true,true,true,false,true,true,true,true,false,false,false,true,true,false,true,false,true,true,false,false,true,false,true,false,false,false,true,false,false,false,false,false,false,false,false,false,false,false,false,false,false,false,false],"id":29,"left_children":[1,3,5,7,9,-1,-1,11,13,15,17,19,21,-1,23,25,27,29,-1,31,33,35,37,-1,39,41,43,45,-1,-1,-1,47,49,-1,51,-1,53,55,-1,-1,57,-1,59,-1,-1,-1,61,-1,-1,-1,-1,-1,-1,-1,-1,-1,-1,-1,-1,-1,-1,-1,-1],"loss_changes":[1.1787841E-1,6.2747404E-2,5.637592E-2,1.3695233E-1,3.8829187E-1,0E0,0E0,2.5001693E-1,6.9554794E-1,2.3700288E-1,5.150963E-1,2.3167753E-1,3.4486094E-1,0E0,7.741257E-1,1.2502328E0,2.4289939E-1,4.4808394E-1,0E0,1.6063806E-1,1.3024554E0,3.125871E-2,9.5483184E-2,0E0,8.3246917E-1,1.9596294E-1,3.982855E-1,4.229617E-1,0E0,0E0,0E0,2.854823E-1,3.550359E-1,0E0,4.9494636E-1,0E0,1.0916708E-1,8.792281E-1,0E0,0E0,1.1756558E0,0E0,3.1520525E-1,0E0,0E0,0E0,4.2827167E-2,0E0,0E0,0E0,0E0,0E0,0E0,0E0,0E0,0E0,0E0,0E0,0E0,0E0,0E0,0E0,0E0],"parents":[2147483647,0,0,1,1,2,2,3,3,4,4,7,7,8,8,9,9,10,10,11,11,12,12,14,14,15,15,16,16,17,17,19,19,20,20,21,21,22,22,24,24,25,25,26,26,27,27,31,31,32,32,34,34,36,36,37,37,40,40,42,42,46,46],"right_children":[2,4,6,8,10,-1,-1,12,14,16,18,20,22,-1,24,26,28,30,-1,32,34,36,38,-1,40,42,44,46,-1,-1,-1,48,50,-1,52,-1,54,56,-1,-1,58,-1,60,-1,-1,-1,62,-1,-1,-1,-1,-1,-1,-1,-1,-1,-1,-1,-1,-1,-1,-1,-1],"split_conditions":[5E-1,5E-1,2.5E0,5E-1,4.5E0,2.286638E-2,9.873836E-2,5E-1,1.5E0,5E-1,5E-1,5E-1,3.5E0,1.7499729E-1,5E-1,5E-1,3.5E0,5E-1,-7.675176E-2,2.5E0,5E-1,1.5E0,5E-1,1.918153E-1,2.5E0,5E-1,1.5E0,1.5E0,-1.5141363E-1,2.7378777E-1,1.6881552E-2,5E-1,5E-1,2.564469E-1,6E0,4.3913078E-2,5E-1,5E-1,-1.7734788E-1,-7.01193E-2,5E-1,-1.2464666E-1,1.5E0,-5.292197E-3,2.74502E-1,-1.3423254E-1,2.5E0,-1.7932542E-2,1.6194386E-2,-1.4372555E-3,-5.0896276E-2,-4.8932113E-2,-2.4793378E-1,3.9195105E-2,-7.408169E-2,-2.4507856E-1,6.466857E-2,7.1417387E-3,2.5738105E-1,1.381284E-1,-1.6454209E-2,7.404228E-2,8.812785E-3],"split_indices":[1,12,3,8,3,0,0,15,3,8,6,4,3,0,9,10,3,8,0,3,11,3,10,0,3,3,3,3,0,0,0,11,6,0,3,0,10,11,0,0,6,0,3,0,0,0,3,0,0,0,0,0,0,0,0,0,0,0,0,0,0,0,0],"split_type":[0,0,0,0,0,0,0,0,0,0,0,0,0,0,0,0,0,0,0,0,0,0,0,0,0,0,0,0,0,0,0,0,0,0,0,0,0,0,0,0,0,0,0,0,0,0,0,0,0,0,0,0,0,0,0,0,0,0,0,0,0,0,0],"sum_hessian":[8.713488E2,8.630178E2,8.330953E0,8.1737946E2,4.5638374E1,6.8339334E0,1.4970198E0,7.621054E2,5.5274094E1,4.062598E1,5.0123935E0,7.499661E2,1.2139254E1,3.2131028E0,5.206099E1,3.0601122E1,1.0024858E1,3.823617E0,1.1887766E0,